<GAP_2026_7_9_180_22_12_55_319>
<Potential label="GAP_2026_7_9_180_22_12_55_319" init_args="IP GAP label=GAP_2026_7_9_180_22_12_55_319"/>
<GAP_params label="GAP_2026_7_9_180_22_12_55_319" gap_version="1783259316">
  <GAP_data do_core="F">
    <e0 Z="1" value=".00000000000000000E+000"/>
    <e0 Z="2" value=".00000000000000000E+000"/>
    <e0 Z="3" value=".00000000000000000E+000"/>
    <e0 Z="4" value=".00000000000000000E+000"/>
    <e0 Z="5" value=".00000000000000000E+000"/>
    <e0 Z="6" value=".00000000000000000E+000"/>
    <e0 Z="7" value=".00000000000000000E+000"/>
    <e0 Z="8" value=".00000000000000000E+000"/>
    <e0 Z="9" value=".00000000000000000E+000"/>
    <e0 Z="10" value=".00000000000000000E+000"/>
    <e0 Z="11" value=".00000000000000000E+000"/>
    <e0 Z="12" value=".00000000000000000E+000"/>
    <e0 Z="13" value=".00000000000000000E+000"/>
    <e0 Z="14" value=".00000000000000000E+000"/>
    <e0 Z="15" value=".00000000000000000E+000"/>
    <e0 Z="16" value=".00000000000000000E+000"/>
    <e0 Z="17" value=".00000000000000000E+000"/>
    <e0 Z="18" value=".00000000000000000E+000"/>
    <e0 Z="19" value=".00000000000000000E+000"/>
    <e0 Z="20" value=".00000000000000000E+000"/>
    <e0 Z="21" value=".00000000000000000E+000"/>
    <e0 Z="22" value=".00000000000000000E+000"/>
    <e0 Z="23" value=".00000000000000000E+000"/>
    <e0 Z="24" value=".00000000000000000E+000"/>
    <e0 Z="25" value=".00000000000000000E+000"/>
    <e0 Z="26" value=".00000000000000000E+000"/>
    <e0 Z="27" value=".00000000000000000E+000"/>
    <e0 Z="28" value=".00000000000000000E+000"/>
    <e0 Z="29" value=".00000000000000000E+000"/>
    <e0 Z="30" value=".00000000000000000E+000"/>
    <e0 Z="31" value=".00000000000000000E+000"/>
    <e0 Z="32" value=".00000000000000000E+000"/>
    <e0 Z="33" value=".00000000000000000E+000"/>
    <e0 Z="34" value=".00000000000000000E+000"/>
    <e0 Z="35" value=".00000000000000000E+000"/>
    <e0 Z="36" value=".00000000000000000E+000"/>
    <e0 Z="37" value=".00000000000000000E+000"/>
    <e0 Z="38" value=".00000000000000000E+000"/>
    <e0 Z="39" value=".00000000000000000E+000"/>
    <e0 Z="40" value=".00000000000000000E+000"/>
    <e0 Z="41" value=".00000000000000000E+000"/>
    <e0 Z="42" value=".00000000000000000E+000"/>
    <e0 Z="43" value=".00000000000000000E+000"/>
    <e0 Z="44" value=".00000000000000000E+000"/>
    <e0 Z="45" value=".00000000000000000E+000"/>
    <e0 Z="46" value=".00000000000000000E+000"/>
    <e0 Z="47" value=".00000000000000000E+000"/>
    <e0 Z="48" value=".00000000000000000E+000"/>
    <e0 Z="49" value=".00000000000000000E+000"/>
    <e0 Z="50" value=".00000000000000000E+000"/>
    <e0 Z="51" value=".00000000000000000E+000"/>
    <e0 Z="52" value=".00000000000000000E+000"/>
    <e0 Z="53" value=".00000000000000000E+000"/>
    <e0 Z="54" value=".00000000000000000E+000"/>
    <e0 Z="55" value=".00000000000000000E+000"/>
    <e0 Z="56" value=".00000000000000000E+000"/>
    <e0 Z="57" value=".00000000000000000E+000"/>
    <e0 Z="58" value=".00000000000000000E+000"/>
    <e0 Z="59" value=".00000000000000000E+000"/>
    <e0 Z="60" value=".00000000000000000E+000"/>
    <e0 Z="61" value=".00000000000000000E+000"/>
    <e0 Z="62" value=".00000000000000000E+000"/>
    <e0 Z="63" value=".00000000000000000E+000"/>
    <e0 Z="64" value=".00000000000000000E+000"/>
    <e0 Z="65" value=".00000000000000000E+000"/>
    <e0 Z="66" value=".00000000000000000E+000"/>
    <e0 Z="67" value=".00000000000000000E+000"/>
    <e0 Z="68" value=".00000000000000000E+000"/>
    <e0 Z="69" value=".00000000000000000E+000"/>
    <e0 Z="70" value=".00000000000000000E+000"/>
    <e0 Z="71" value=".00000000000000000E+000"/>
    <e0 Z="72" value=".00000000000000000E+000"/>
    <e0 Z="73" value=".00000000000000000E+000"/>
    <e0 Z="74" value=".00000000000000000E+000"/>
    <e0 Z="75" value=".00000000000000000E+000"/>
    <e0 Z="76" value=".00000000000000000E+000"/>
    <e0 Z="77" value=".00000000000000000E+000"/>
    <e0 Z="78" value=".00000000000000000E+000"/>
    <e0 Z="79" value=".00000000000000000E+000"/>
    <e0 Z="80" value=".00000000000000000E+000"/>
    <e0 Z="81" value=".00000000000000000E+000"/>
    <e0 Z="82" value=".00000000000000000E+000"/>
    <e0 Z="83" value=".00000000000000000E+000"/>
    <e0 Z="84" value=".00000000000000000E+000"/>
    <e0 Z="85" value=".00000000000000000E+000"/>
    <e0 Z="86" value=".00000000000000000E+000"/>
    <e0 Z="87" value=".00000000000000000E+000"/>
    <e0 Z="88" value=".00000000000000000E+000"/>
    <e0 Z="89" value=".00000000000000000E+000"/>
    <e0 Z="90" value=".00000000000000000E+000"/>
    <e0 Z="91" value=".00000000000000000E+000"/>
    <e0 Z="92" value=".00000000000000000E+000"/>
    <e0 Z="93" value=".00000000000000000E+000"/>
    <e0 Z="94" value=".00000000000000000E+000"/>
    <e0 Z="95" value=".00000000000000000E+000"/>
    <e0 Z="96" value=".00000000000000000E+000"/>
    <e0 Z="97" value=".00000000000000000E+000"/>
    <e0 Z="98" value=".00000000000000000E+000"/>
    <e0 Z="99" value=".00000000000000000E+000"/>
    <e0 Z="100" value=".00000000000000000E+000"/>
    <e0 Z="101" value=".00000000000000000E+000"/>
    <e0 Z="102" value=".00000000000000000E+000"/>
    <e0 Z="103" value=".00000000000000000E+000"/>
    <e0 Z="104" value=".00000000000000000E+000"/>
    <e0 Z="105" value=".00000000000000000E+000"/>
    <e0 Z="106" value=".00000000000000000E+000"/>
    <e0 Z="107" value=".00000000000000000E+000"/>
    <e0 Z="108" value=".00000000000000000E+000"/>
    <e0 Z="109" value=".00000000000000000E+000"/>
    <e0 Z="110" value=".00000000000000000E+000"/>
    <e0 Z="111" value=".00000000000000000E+000"/>
    <e0 Z="112" value=".00000000000000000E+000"/>
    <e0 Z="113" value=".00000000000000000E+000"/>
    <e0 Z="114" value=".00000000000000000E+000"/>
    <e0 Z="115" value=".00000000000000000E+000"/>
    <e0 Z="116" value=".00000000000000000E+000"/>
    <e0 Z="117" value=".00000000000000000E+000"/>
    <e0 Z="118" value=".00000000000000000E+000"/>
  </GAP_data>
  <gpSparse label="GAP_2026_7_9_180_22_12_55_319" n_coordinate="2" fitted="T">
    <gpCoordinates label="GAP_2026_7_9_180_22_12_55_3191" dimensions="841" signal_variance="1.0000000000000000" signal_mean=".00000000000000000E+000" sparsified="T" n_permutations="1" covariance_type="2" zeta="2.0000000000000000" n_sparseX="500" sparseX_filename="gap_new.xml.sparseX.GAP_2026_7_9_180_22_12_55_3191" sparseX_md5sum="0b979dbabbf93e95336cbd3f29643408">
      <descriptor>soap cutoff=3.0 n_max=7 l_max=7 delta=1 covariance_type=dot_product atom_sigma=0.5 n_sparse=500 zeta=2 n_species=2 Z=8 species_Z={8 1 }</descriptor>
      <permutation i="1">1  </permutation>
      <sparseX i="1" alpha="-581.26576202929914" sparseCutoff="1.0000000000000000"/>
      <sparseX i="2" alpha="3629.9054308107943" sparseCutoff="1.0000000000000000"/>
      <sparseX i="3" alpha="178.41151948624324" sparseCutoff="1.0000000000000000"/>
      <sparseX i="4" alpha="1313.1014043782486" sparseCutoff="1.0000000000000000"/>
      <sparseX i="5" alpha="926.90192770154022" sparseCutoff="1.0000000000000000"/>
      <sparseX i="6" alpha="-109.92837265422324" sparseCutoff="1.0000000000000000"/>
      <sparseX i="7" alpha="145.95921155561359" sparseCutoff="1.0000000000000000"/>
      <sparseX i="8" alpha="-1175.3233401077571" sparseCutoff="1.0000000000000000"/>
      <sparseX i="9" alpha="-334.75006674281258" sparseCutoff="1.0000000000000000"/>
      <sparseX i="10" alpha="325.64455472366370" sparseCutoff="1.0000000000000000"/>
      <sparseX i="11" alpha="-323.13165399884872" sparseCutoff="1.0000000000000000"/>
      <sparseX i="12" alpha="-564.66628737384497" sparseCutoff="1.0000000000000000"/>
      <sparseX i="13" alpha="1060.8644849175810" sparseCutoff="1.0000000000000000"/>
      <sparseX i="14" alpha="58.513817839889946" sparseCutoff="1.0000000000000000"/>
      <sparseX i="15" alpha="2146.9020815606186" sparseCutoff="1.0000000000000000"/>
      <sparseX i="16" alpha="1530.8308460589840" sparseCutoff="1.0000000000000000"/>
      <sparseX i="17" alpha="-283.17229813867891" sparseCutoff="1.0000000000000000"/>
      <sparseX i="18" alpha="187.50891896682847" sparseCutoff="1.0000000000000000"/>
      <sparseX i="19" alpha="-446.82796155450205" sparseCutoff="1.0000000000000000"/>
      <sparseX i="20" alpha="-581.71707380072280" sparseCutoff="1.0000000000000000"/>
      <sparseX i="21" alpha="-1307.6388239818343" sparseCutoff="1.0000000000000000"/>
      <sparseX i="22" alpha="-2510.0191959693038" sparseCutoff="1.0000000000000000"/>
      <sparseX i="23" alpha="-130.80113486032488" sparseCutoff="1.0000000000000000"/>
      <sparseX i="24" alpha="-743.28767406184113" sparseCutoff="1.0000000000000000"/>
      <sparseX i="25" alpha="-1620.3183706691234" sparseCutoff="1.0000000000000000"/>
      <sparseX i="26" alpha="359.73290758213426" sparseCutoff="1.0000000000000000"/>
      <sparseX i="27" alpha="944.25991283643043" sparseCutoff="1.0000000000000000"/>
      <sparseX i="28" alpha="774.10755531086988" sparseCutoff="1.0000000000000000"/>
      <sparseX i="29" alpha="-1906.9968710148369" sparseCutoff="1.0000000000000000"/>
      <sparseX i="30" alpha="389.61583124566050" sparseCutoff="1.0000000000000000"/>
      <sparseX i="31" alpha="-45.180997768731281" sparseCutoff="1.0000000000000000"/>
      <sparseX i="32" alpha="-570.21115208769834" sparseCutoff="1.0000000000000000"/>
      <sparseX i="33" alpha="272.15077292981618" sparseCutoff="1.0000000000000000"/>
      <sparseX i="34" alpha="478.68142715035231" sparseCutoff="1.0000000000000000"/>
      <sparseX i="35" alpha="-350.83573667406654" sparseCutoff="1.0000000000000000"/>
      <sparseX i="36" alpha="-1494.5076277712576" sparseCutoff="1.0000000000000000"/>
      <sparseX i="37" alpha="1008.8118544377661" sparseCutoff="1.0000000000000000"/>
      <sparseX i="38" alpha="-2407.0098941842280" sparseCutoff="1.0000000000000000"/>
      <sparseX i="39" alpha="-672.23619672508403" sparseCutoff="1.0000000000000000"/>
      <sparseX i="40" alpha="-229.78225967248878" sparseCutoff="1.0000000000000000"/>
      <sparseX i="41" alpha="-118.30868492911237" sparseCutoff="1.0000000000000000"/>
      <sparseX i="42" alpha="-744.14189341584506" sparseCutoff="1.0000000000000000"/>
      <sparseX i="43" alpha="-426.94213762244107" sparseCutoff="1.0000000000000000"/>
      <sparseX i="44" alpha="1649.1613750399124" sparseCutoff="1.0000000000000000"/>
      <sparseX i="45" alpha="-1051.3534537490816" sparseCutoff="1.0000000000000000"/>
      <sparseX i="46" alpha="737.56462438368260" sparseCutoff="1.0000000000000000"/>
      <sparseX i="47" alpha="330.74124030048677" sparseCutoff="1.0000000000000000"/>
      <sparseX i="48" alpha="4048.4756869833564" sparseCutoff="1.0000000000000000"/>
      <sparseX i="49" alpha="25.217009702826257" sparseCutoff="1.0000000000000000"/>
      <sparseX i="50" alpha="-325.25383123321154" sparseCutoff="1.0000000000000000"/>
      <sparseX i="51" alpha="365.42398497742477" sparseCutoff="1.0000000000000000"/>
      <sparseX i="52" alpha="201.76466571517295" sparseCutoff="1.0000000000000000"/>
      <sparseX i="53" alpha="35.617337883541360" sparseCutoff="1.0000000000000000"/>
      <sparseX i="54" alpha="-975.46393277523839" sparseCutoff="1.0000000000000000"/>
      <sparseX i="55" alpha="-60.997271716755229" sparseCutoff="1.0000000000000000"/>
      <sparseX i="56" alpha="364.78776699437827" sparseCutoff="1.0000000000000000"/>
      <sparseX i="57" alpha="138.25133200617879" sparseCutoff="1.0000000000000000"/>
      <sparseX i="58" alpha="-14.122066796232133" sparseCutoff="1.0000000000000000"/>
      <sparseX i="59" alpha="28.573715244989334" sparseCutoff="1.0000000000000000"/>
      <sparseX i="60" alpha="-140.41762251424285" sparseCutoff="1.0000000000000000"/>
      <sparseX i="61" alpha="-532.97866036130131" sparseCutoff="1.0000000000000000"/>
      <sparseX i="62" alpha="-95.834801880287046" sparseCutoff="1.0000000000000000"/>
      <sparseX i="63" alpha="332.81262687878029" sparseCutoff="1.0000000000000000"/>
      <sparseX i="64" alpha="-351.00705924339076" sparseCutoff="1.0000000000000000"/>
      <sparseX i="65" alpha="89.422403318331575" sparseCutoff="1.0000000000000000"/>
      <sparseX i="66" alpha="-312.15608206776233" sparseCutoff="1.0000000000000000"/>
      <sparseX i="67" alpha="165.65568676589444" sparseCutoff="1.0000000000000000"/>
      <sparseX i="68" alpha="1353.2126039160185" sparseCutoff="1.0000000000000000"/>
      <sparseX i="69" alpha="661.99676403619480" sparseCutoff="1.0000000000000000"/>
      <sparseX i="70" alpha="200.35092682787251" sparseCutoff="1.0000000000000000"/>
      <sparseX i="71" alpha="-858.39181241363451" sparseCutoff="1.0000000000000000"/>
      <sparseX i="72" alpha="573.14978875447082" sparseCutoff="1.0000000000000000"/>
      <sparseX i="73" alpha="-514.24235911693108" sparseCutoff="1.0000000000000000"/>
      <sparseX i="74" alpha="950.57255751357184" sparseCutoff="1.0000000000000000"/>
      <sparseX i="75" alpha="1014.7421247363930" sparseCutoff="1.0000000000000000"/>
      <sparseX i="76" alpha="-2164.9187083465772" sparseCutoff="1.0000000000000000"/>
      <sparseX i="77" alpha="-811.95249602322394" sparseCutoff="1.0000000000000000"/>
      <sparseX i="78" alpha="-474.13513081275335" sparseCutoff="1.0000000000000000"/>
      <sparseX i="79" alpha="742.42306266764967" sparseCutoff="1.0000000000000000"/>
      <sparseX i="80" alpha="-679.18361774638117" sparseCutoff="1.0000000000000000"/>
      <sparseX i="81" alpha="-1.7825165113694885" sparseCutoff="1.0000000000000000"/>
      <sparseX i="82" alpha="2305.0928445163354" sparseCutoff="1.0000000000000000"/>
      <sparseX i="83" alpha="-1686.6564672541660" sparseCutoff="1.0000000000000000"/>
      <sparseX i="84" alpha="1062.4907148005509" sparseCutoff="1.0000000000000000"/>
      <sparseX i="85" alpha="-74.328592619976334" sparseCutoff="1.0000000000000000"/>
      <sparseX i="86" alpha="2802.0164077175955" sparseCutoff="1.0000000000000000"/>
      <sparseX i="87" alpha="252.96099688485936" sparseCutoff="1.0000000000000000"/>
      <sparseX i="88" alpha="-998.99725123306541" sparseCutoff="1.0000000000000000"/>
      <sparseX i="89" alpha="161.40206342263218" sparseCutoff="1.0000000000000000"/>
      <sparseX i="90" alpha="-110.33224008479772" sparseCutoff="1.0000000000000000"/>
      <sparseX i="91" alpha="242.54512459667171" sparseCutoff="1.0000000000000000"/>
      <sparseX i="92" alpha="-86.327528018995494" sparseCutoff="1.0000000000000000"/>
      <sparseX i="93" alpha="-765.14419681510969" sparseCutoff="1.0000000000000000"/>
      <sparseX i="94" alpha="-279.97130582523999" sparseCutoff="1.0000000000000000"/>
      <sparseX i="95" alpha="357.10843175957496" sparseCutoff="1.0000000000000000"/>
      <sparseX i="96" alpha="-286.81800327012127" sparseCutoff="1.0000000000000000"/>
      <sparseX i="97" alpha="-1110.2077970516057" sparseCutoff="1.0000000000000000"/>
      <sparseX i="98" alpha="-69.637407853594524" sparseCutoff="1.0000000000000000"/>
      <sparseX i="99" alpha="-122.85687307835457" sparseCutoff="1.0000000000000000"/>
      <sparseX i="100" alpha="-1494.2159903542208" sparseCutoff="1.0000000000000000"/>
      <sparseX i="101" alpha="354.91020654075834" sparseCutoff="1.0000000000000000"/>
      <sparseX i="102" alpha="107.35931369606487" sparseCutoff="1.0000000000000000"/>
      <sparseX i="103" alpha="138.71790360298780" sparseCutoff="1.0000000000000000"/>
      <sparseX i="104" alpha="-628.62399814797436" sparseCutoff="1.0000000000000000"/>
      <sparseX i="105" alpha="286.88024950487954" sparseCutoff="1.0000000000000000"/>
      <sparseX i="106" alpha="521.67142653380711" sparseCutoff="1.0000000000000000"/>
      <sparseX i="107" alpha="-44.103615439345830" sparseCutoff="1.0000000000000000"/>
      <sparseX i="108" alpha="1147.9979024547670" sparseCutoff="1.0000000000000000"/>
      <sparseX i="109" alpha="176.86655586721884" sparseCutoff="1.0000000000000000"/>
      <sparseX i="110" alpha="540.52410426869437" sparseCutoff="1.0000000000000000"/>
      <sparseX i="111" alpha="-535.63388709211813" sparseCutoff="1.0000000000000000"/>
      <sparseX i="112" alpha="17.870255495711771" sparseCutoff="1.0000000000000000"/>
      <sparseX i="113" alpha="2451.5649597641027" sparseCutoff="1.0000000000000000"/>
      <sparseX i="114" alpha="-212.63564647858675" sparseCutoff="1.0000000000000000"/>
      <sparseX i="115" alpha="549.34488129256090" sparseCutoff="1.0000000000000000"/>
      <sparseX i="116" alpha="-1020.4593831277361" sparseCutoff="1.0000000000000000"/>
      <sparseX i="117" alpha="-898.52321947985672" sparseCutoff="1.0000000000000000"/>
      <sparseX i="118" alpha="-1208.4120461273847" sparseCutoff="1.0000000000000000"/>
      <sparseX i="119" alpha="645.99424618358910" sparseCutoff="1.0000000000000000"/>
      <sparseX i="120" alpha="203.85766196694490" sparseCutoff="1.0000000000000000"/>
      <sparseX i="121" alpha="-293.03295373391398" sparseCutoff="1.0000000000000000"/>
      <sparseX i="122" alpha="-963.02337017333286" sparseCutoff="1.0000000000000000"/>
      <sparseX i="123" alpha="-391.37500404063803" sparseCutoff="1.0000000000000000"/>
      <sparseX i="124" alpha="116.29872686061982" sparseCutoff="1.0000000000000000"/>
      <sparseX i="125" alpha="28.941713775472763" sparseCutoff="1.0000000000000000"/>
      <sparseX i="126" alpha="-437.32217671410382" sparseCutoff="1.0000000000000000"/>
      <sparseX i="127" alpha="-2966.1840186635654" sparseCutoff="1.0000000000000000"/>
      <sparseX i="128" alpha="-116.74074066758430" sparseCutoff="1.0000000000000000"/>
      <sparseX i="129" alpha="788.84978363857419" sparseCutoff="1.0000000000000000"/>
      <sparseX i="130" alpha="966.13866374919985" sparseCutoff="1.0000000000000000"/>
      <sparseX i="131" alpha="-1590.7528029800492" sparseCutoff="1.0000000000000000"/>
      <sparseX i="132" alpha="-1366.4723139510788" sparseCutoff="1.0000000000000000"/>
      <sparseX i="133" alpha="-1088.4855896461165" sparseCutoff="1.0000000000000000"/>
      <sparseX i="134" alpha="-17.617634492287426" sparseCutoff="1.0000000000000000"/>
      <sparseX i="135" alpha="570.46976959878725" sparseCutoff="1.0000000000000000"/>
      <sparseX i="136" alpha="-58.180490619517933" sparseCutoff="1.0000000000000000"/>
      <sparseX i="137" alpha="86.006566821300126" sparseCutoff="1.0000000000000000"/>
      <sparseX i="138" alpha="78.982356745872394" sparseCutoff="1.0000000000000000"/>
      <sparseX i="139" alpha="-262.86208708377666" sparseCutoff="1.0000000000000000"/>
      <sparseX i="140" alpha="876.19764663235344" sparseCutoff="1.0000000000000000"/>
      <sparseX i="141" alpha="-999.58014433646360" sparseCutoff="1.0000000000000000"/>
      <sparseX i="142" alpha="78.525541075166529" sparseCutoff="1.0000000000000000"/>
      <sparseX i="143" alpha="247.44315416954478" sparseCutoff="1.0000000000000000"/>
      <sparseX i="144" alpha="-989.48846506553014" sparseCutoff="1.0000000000000000"/>
      <sparseX i="145" alpha="1293.0933043305656" sparseCutoff="1.0000000000000000"/>
      <sparseX i="146" alpha="34.586029689198789" sparseCutoff="1.0000000000000000"/>
      <sparseX i="147" alpha="912.49458032037194" sparseCutoff="1.0000000000000000"/>
      <sparseX i="148" alpha="609.72279420447319" sparseCutoff="1.0000000000000000"/>
      <sparseX i="149" alpha="-58.604757263164579" sparseCutoff="1.0000000000000000"/>
      <sparseX i="150" alpha="-590.12720801629416" sparseCutoff="1.0000000000000000"/>
      <sparseX i="151" alpha="1314.5423232099233" sparseCutoff="1.0000000000000000"/>
      <sparseX i="152" alpha="-1501.0445178480727" sparseCutoff="1.0000000000000000"/>
      <sparseX i="153" alpha="-299.19352171977420" sparseCutoff="1.0000000000000000"/>
      <sparseX i="154" alpha="-92.214651296649194" sparseCutoff="1.0000000000000000"/>
      <sparseX i="155" alpha="-460.55834730269265" sparseCutoff="1.0000000000000000"/>
      <sparseX i="156" alpha="-477.21104455469907" sparseCutoff="1.0000000000000000"/>
      <sparseX i="157" alpha="-224.40098424763440" sparseCutoff="1.0000000000000000"/>
      <sparseX i="158" alpha="337.51086875101885" sparseCutoff="1.0000000000000000"/>
      <sparseX i="159" alpha="2232.7380729473248" sparseCutoff="1.0000000000000000"/>
      <sparseX i="160" alpha="245.15106833297861" sparseCutoff="1.0000000000000000"/>
      <sparseX i="161" alpha="114.16808928763498" sparseCutoff="1.0000000000000000"/>
      <sparseX i="162" alpha="-1146.0870120557186" sparseCutoff="1.0000000000000000"/>
      <sparseX i="163" alpha="722.14615278672875" sparseCutoff="1.0000000000000000"/>
      <sparseX i="164" alpha="-774.61649676364732" sparseCutoff="1.0000000000000000"/>
      <sparseX i="165" alpha="-1413.2343907611087" sparseCutoff="1.0000000000000000"/>
      <sparseX i="166" alpha="719.63363714147090" sparseCutoff="1.0000000000000000"/>
      <sparseX i="167" alpha="804.09040467078546" sparseCutoff="1.0000000000000000"/>
      <sparseX i="168" alpha="-1250.1957194565391" sparseCutoff="1.0000000000000000"/>
      <sparseX i="169" alpha="333.61140491217770" sparseCutoff="1.0000000000000000"/>
      <sparseX i="170" alpha="1687.6278683167882" sparseCutoff="1.0000000000000000"/>
      <sparseX i="171" alpha="1445.8510240709611" sparseCutoff="1.0000000000000000"/>
      <sparseX i="172" alpha="-106.60360204389549" sparseCutoff="1.0000000000000000"/>
      <sparseX i="173" alpha="104.60077683402578" sparseCutoff="1.0000000000000000"/>
      <sparseX i="174" alpha="-315.37671343490001" sparseCutoff="1.0000000000000000"/>
      <sparseX i="175" alpha="432.15730216482478" sparseCutoff="1.0000000000000000"/>
      <sparseX i="176" alpha="220.93224199044619" sparseCutoff="1.0000000000000000"/>
      <sparseX i="177" alpha="-341.97303965645716" sparseCutoff="1.0000000000000000"/>
      <sparseX i="178" alpha="804.12032434730622" sparseCutoff="1.0000000000000000"/>
      <sparseX i="179" alpha="-1236.6559034449999" sparseCutoff="1.0000000000000000"/>
      <sparseX i="180" alpha="94.167066094634819" sparseCutoff="1.0000000000000000"/>
      <sparseX i="181" alpha="-320.44947209057722" sparseCutoff="1.0000000000000000"/>
      <sparseX i="182" alpha="99.864510110139975" sparseCutoff="1.0000000000000000"/>
      <sparseX i="183" alpha="536.14445150565723" sparseCutoff="1.0000000000000000"/>
      <sparseX i="184" alpha="646.64850948792844" sparseCutoff="1.0000000000000000"/>
      <sparseX i="185" alpha="376.52642135012502" sparseCutoff="1.0000000000000000"/>
      <sparseX i="186" alpha="-165.07045798656236" sparseCutoff="1.0000000000000000"/>
      <sparseX i="187" alpha="1261.5994802517214" sparseCutoff="1.0000000000000000"/>
      <sparseX i="188" alpha="941.72830315001761" sparseCutoff="1.0000000000000000"/>
      <sparseX i="189" alpha="-398.80735644216327" sparseCutoff="1.0000000000000000"/>
      <sparseX i="190" alpha="-2844.8487784772115" sparseCutoff="1.0000000000000000"/>
      <sparseX i="191" alpha="104.26406028183783" sparseCutoff="1.0000000000000000"/>
      <sparseX i="192" alpha="-834.87840260828079" sparseCutoff="1.0000000000000000"/>
      <sparseX i="193" alpha="-908.03170877848811" sparseCutoff="1.0000000000000000"/>
      <sparseX i="194" alpha="-710.68363420332298" sparseCutoff="1.0000000000000000"/>
      <sparseX i="195" alpha="135.31681693209651" sparseCutoff="1.0000000000000000"/>
      <sparseX i="196" alpha="136.08795890665795" sparseCutoff="1.0000000000000000"/>
      <sparseX i="197" alpha="2457.3045003205334" sparseCutoff="1.0000000000000000"/>
      <sparseX i="198" alpha="277.23386824634701" sparseCutoff="1.0000000000000000"/>
      <sparseX i="199" alpha="794.34550713992405" sparseCutoff="1.0000000000000000"/>
      <sparseX i="200" alpha="475.21899950446021" sparseCutoff="1.0000000000000000"/>
      <sparseX i="201" alpha="419.91910349272558" sparseCutoff="1.0000000000000000"/>
      <sparseX i="202" alpha="713.26998635357268" sparseCutoff="1.0000000000000000"/>
      <sparseX i="203" alpha="-104.81130826865792" sparseCutoff="1.0000000000000000"/>
      <sparseX i="204" alpha="-414.84246120563108" sparseCutoff="1.0000000000000000"/>
      <sparseX i="205" alpha="-924.13626012347299" sparseCutoff="1.0000000000000000"/>
      <sparseX i="206" alpha="-494.41377942855252" sparseCutoff="1.0000000000000000"/>
      <sparseX i="207" alpha="-24.663742754876793" sparseCutoff="1.0000000000000000"/>
      <sparseX i="208" alpha="-418.05944968344210" sparseCutoff="1.0000000000000000"/>
      <sparseX i="209" alpha="-160.44557713313381" sparseCutoff="1.0000000000000000"/>
      <sparseX i="210" alpha="-330.39958986237656" sparseCutoff="1.0000000000000000"/>
      <sparseX i="211" alpha="5506.7800058946059" sparseCutoff="1.0000000000000000"/>
      <sparseX i="212" alpha="544.73028070838291" sparseCutoff="1.0000000000000000"/>
      <sparseX i="213" alpha="346.32662900865029" sparseCutoff="1.0000000000000000"/>
      <sparseX i="214" alpha="-434.09583849074301" sparseCutoff="1.0000000000000000"/>
      <sparseX i="215" alpha="131.09210924144548" sparseCutoff="1.0000000000000000"/>
      <sparseX i="216" alpha="-1134.3614796967877" sparseCutoff="1.0000000000000000"/>
      <sparseX i="217" alpha="488.27260160353705" sparseCutoff="1.0000000000000000"/>
      <sparseX i="218" alpha="1433.8110343825856" sparseCutoff="1.0000000000000000"/>
      <sparseX i="219" alpha="741.66833298757069" sparseCutoff="1.0000000000000000"/>
      <sparseX i="220" alpha="-1400.6651088075391" sparseCutoff="1.0000000000000000"/>
      <sparseX i="221" alpha="115.09667851184453" sparseCutoff="1.0000000000000000"/>
      <sparseX i="222" alpha="2067.9814999422802" sparseCutoff="1.0000000000000000"/>
      <sparseX i="223" alpha="-1489.1873749822962" sparseCutoff="1.0000000000000000"/>
      <sparseX i="224" alpha="1970.9690989485000" sparseCutoff="1.0000000000000000"/>
      <sparseX i="225" alpha="382.67796561324928" sparseCutoff="1.0000000000000000"/>
      <sparseX i="226" alpha="476.78147166232191" sparseCutoff="1.0000000000000000"/>
      <sparseX i="227" alpha="2389.5533732681492" sparseCutoff="1.0000000000000000"/>
      <sparseX i="228" alpha="-853.42770720526175" sparseCutoff="1.0000000000000000"/>
      <sparseX i="229" alpha="-901.43203103658709" sparseCutoff="1.0000000000000000"/>
      <sparseX i="230" alpha="20.609901647829449" sparseCutoff="1.0000000000000000"/>
      <sparseX i="231" alpha="1892.1201536267440" sparseCutoff="1.0000000000000000"/>
      <sparseX i="232" alpha="-539.68327274236879" sparseCutoff="1.0000000000000000"/>
      <sparseX i="233" alpha="240.93825626517477" sparseCutoff="1.0000000000000000"/>
      <sparseX i="234" alpha="-137.11328002655912" sparseCutoff="1.0000000000000000"/>
      <sparseX i="235" alpha="2077.1060962271395" sparseCutoff="1.0000000000000000"/>
      <sparseX i="236" alpha="769.44511158327100" sparseCutoff="1.0000000000000000"/>
      <sparseX i="237" alpha="186.08757782055147" sparseCutoff="1.0000000000000000"/>
      <sparseX i="238" alpha="134.13956472384112" sparseCutoff="1.0000000000000000"/>
      <sparseX i="239" alpha="-939.95824171610366" sparseCutoff="1.0000000000000000"/>
      <sparseX i="240" alpha="-325.83813808565446" sparseCutoff="1.0000000000000000"/>
      <sparseX i="241" alpha="-1397.6793793000754" sparseCutoff="1.0000000000000000"/>
      <sparseX i="242" alpha="266.57641056619383" sparseCutoff="1.0000000000000000"/>
      <sparseX i="243" alpha="432.62344353147853" sparseCutoff="1.0000000000000000"/>
      <sparseX i="244" alpha="99.490232952432208" sparseCutoff="1.0000000000000000"/>
      <sparseX i="245" alpha="529.88572928525718" sparseCutoff="1.0000000000000000"/>
      <sparseX i="246" alpha="353.18197524473641" sparseCutoff="1.0000000000000000"/>
      <sparseX i="247" alpha="-1288.3389323647575" sparseCutoff="1.0000000000000000"/>
      <sparseX i="248" alpha="10.121948769681975" sparseCutoff="1.0000000000000000"/>
      <sparseX i="249" alpha="-353.31688972388815" sparseCutoff="1.0000000000000000"/>
      <sparseX i="250" alpha="1297.1400290588479" sparseCutoff="1.0000000000000000"/>
      <sparseX i="251" alpha="368.84880718978309" sparseCutoff="1.0000000000000000"/>
      <sparseX i="252" alpha="-289.53775185414980" sparseCutoff="1.0000000000000000"/>
      <sparseX i="253" alpha="-320.36760997971624" sparseCutoff="1.0000000000000000"/>
      <sparseX i="254" alpha="594.07183458012992" sparseCutoff="1.0000000000000000"/>
      <sparseX i="255" alpha="-274.62358917617746" sparseCutoff="1.0000000000000000"/>
      <sparseX i="256" alpha="-36.114025360938193" sparseCutoff="1.0000000000000000"/>
      <sparseX i="257" alpha="382.77049829428302" sparseCutoff="1.0000000000000000"/>
      <sparseX i="258" alpha="-568.32811375245092" sparseCutoff="1.0000000000000000"/>
      <sparseX i="259" alpha="959.24514970342341" sparseCutoff="1.0000000000000000"/>
      <sparseX i="260" alpha="-620.62892873594365" sparseCutoff="1.0000000000000000"/>
      <sparseX i="261" alpha="551.23309350255022" sparseCutoff="1.0000000000000000"/>
      <sparseX i="262" alpha="-357.62736844386268" sparseCutoff="1.0000000000000000"/>
      <sparseX i="263" alpha="620.27072027546672" sparseCutoff="1.0000000000000000"/>
      <sparseX i="264" alpha="-201.89626171794174" sparseCutoff="1.0000000000000000"/>
      <sparseX i="265" alpha="-116.48341838728190" sparseCutoff="1.0000000000000000"/>
      <sparseX i="266" alpha="417.40425424126522" sparseCutoff="1.0000000000000000"/>
      <sparseX i="267" alpha="-998.02157369069585" sparseCutoff="1.0000000000000000"/>
      <sparseX i="268" alpha="-1562.3709834871879" sparseCutoff="1.0000000000000000"/>
      <sparseX i="269" alpha="-262.79739301797099" sparseCutoff="1.0000000000000000"/>
      <sparseX i="270" alpha="-763.11319728883711" sparseCutoff="1.0000000000000000"/>
      <sparseX i="271" alpha="-960.95924477481651" sparseCutoff="1.0000000000000000"/>
      <sparseX i="272" alpha="342.98835771734059" sparseCutoff="1.0000000000000000"/>
      <sparseX i="273" alpha="-373.08563717558570" sparseCutoff="1.0000000000000000"/>
      <sparseX i="274" alpha="-158.02973302965412" sparseCutoff="1.0000000000000000"/>
      <sparseX i="275" alpha="-51.773893958528042" sparseCutoff="1.0000000000000000"/>
      <sparseX i="276" alpha="-36.440661722484364" sparseCutoff="1.0000000000000000"/>
      <sparseX i="277" alpha="-347.16483314044564" sparseCutoff="1.0000000000000000"/>
      <sparseX i="278" alpha="-300.29437376948852" sparseCutoff="1.0000000000000000"/>
      <sparseX i="279" alpha="243.25321144147392" sparseCutoff="1.0000000000000000"/>
      <sparseX i="280" alpha="459.46739684374484" sparseCutoff="1.0000000000000000"/>
      <sparseX i="281" alpha="689.08122510027113" sparseCutoff="1.0000000000000000"/>
      <sparseX i="282" alpha="-266.81971875830129" sparseCutoff="1.0000000000000000"/>
      <sparseX i="283" alpha="342.56302172729778" sparseCutoff="1.0000000000000000"/>
      <sparseX i="284" alpha="-1389.6745352857558" sparseCutoff="1.0000000000000000"/>
      <sparseX i="285" alpha="718.94923590735618" sparseCutoff="1.0000000000000000"/>
      <sparseX i="286" alpha="4381.1834240101925" sparseCutoff="1.0000000000000000"/>
      <sparseX i="287" alpha="-379.45890883546787" sparseCutoff="1.0000000000000000"/>
      <sparseX i="288" alpha="-7.1122603666613413" sparseCutoff="1.0000000000000000"/>
      <sparseX i="289" alpha="-33.886158478364557" sparseCutoff="1.0000000000000000"/>
      <sparseX i="290" alpha="-216.21804472904671" sparseCutoff="1.0000000000000000"/>
      <sparseX i="291" alpha="-68.726251164136599" sparseCutoff="1.0000000000000000"/>
      <sparseX i="292" alpha="-68.769124513185488" sparseCutoff="1.0000000000000000"/>
      <sparseX i="293" alpha="-330.99812432420146" sparseCutoff="1.0000000000000000"/>
      <sparseX i="294" alpha="378.52933079221896" sparseCutoff="1.0000000000000000"/>
      <sparseX i="295" alpha="-612.57656497352377" sparseCutoff="1.0000000000000000"/>
      <sparseX i="296" alpha="284.46360851728406" sparseCutoff="1.0000000000000000"/>
      <sparseX i="297" alpha="-351.00218898189797" sparseCutoff="1.0000000000000000"/>
      <sparseX i="298" alpha="-509.12952737605616" sparseCutoff="1.0000000000000000"/>
      <sparseX i="299" alpha="201.78355920620459" sparseCutoff="1.0000000000000000"/>
      <sparseX i="300" alpha="11.957941647704706" sparseCutoff="1.0000000000000000"/>
      <sparseX i="301" alpha="218.67267573438792" sparseCutoff="1.0000000000000000"/>
      <sparseX i="302" alpha="130.90882560168410" sparseCutoff="1.0000000000000000"/>
      <sparseX i="303" alpha="-1469.9641547738956" sparseCutoff="1.0000000000000000"/>
      <sparseX i="304" alpha="-703.40428414361838" sparseCutoff="1.0000000000000000"/>
      <sparseX i="305" alpha="368.04370652330124" sparseCutoff="1.0000000000000000"/>
      <sparseX i="306" alpha="-93.428632324121395" sparseCutoff="1.0000000000000000"/>
      <sparseX i="307" alpha="47.037919572103043" sparseCutoff="1.0000000000000000"/>
      <sparseX i="308" alpha="237.33124518883832" sparseCutoff="1.0000000000000000"/>
      <sparseX i="309" alpha="-209.68014130608552" sparseCutoff="1.0000000000000000"/>
      <sparseX i="310" alpha="-97.538386193067893" sparseCutoff="1.0000000000000000"/>
      <sparseX i="311" alpha="-515.51959231539183" sparseCutoff="1.0000000000000000"/>
      <sparseX i="312" alpha="237.21425404103081" sparseCutoff="1.0000000000000000"/>
      <sparseX i="313" alpha="1406.6505986009699" sparseCutoff="1.0000000000000000"/>
      <sparseX i="314" alpha="626.69904901343261" sparseCutoff="1.0000000000000000"/>
      <sparseX i="315" alpha="-228.27228329107695" sparseCutoff="1.0000000000000000"/>
      <sparseX i="316" alpha="1803.5064434854769" sparseCutoff="1.0000000000000000"/>
      <sparseX i="317" alpha="83.270130796312273" sparseCutoff="1.0000000000000000"/>
      <sparseX i="318" alpha="290.41844099504885" sparseCutoff="1.0000000000000000"/>
      <sparseX i="319" alpha="319.88075909088371" sparseCutoff="1.0000000000000000"/>
      <sparseX i="320" alpha="-785.41208794645536" sparseCutoff="1.0000000000000000"/>
      <sparseX i="321" alpha="-89.737182896699196" sparseCutoff="1.0000000000000000"/>
      <sparseX i="322" alpha="-252.84702256776012" sparseCutoff="1.0000000000000000"/>
      <sparseX i="323" alpha="-183.61844833286472" sparseCutoff="1.0000000000000000"/>
      <sparseX i="324" alpha="36.342643140469690" sparseCutoff="1.0000000000000000"/>
      <sparseX i="325" alpha="-481.28491554286370" sparseCutoff="1.0000000000000000"/>
      <sparseX i="326" alpha="-3108.1563296043309" sparseCutoff="1.0000000000000000"/>
      <sparseX i="327" alpha="106.76668175227748" sparseCutoff="1.0000000000000000"/>
      <sparseX i="328" alpha="-2480.8702179077345" sparseCutoff="1.0000000000000000"/>
      <sparseX i="329" alpha="77.112922119785907" sparseCutoff="1.0000000000000000"/>
      <sparseX i="330" alpha="-98.388106941857558" sparseCutoff="1.0000000000000000"/>
      <sparseX i="331" alpha="1819.0851013020831" sparseCutoff="1.0000000000000000"/>
      <sparseX i="332" alpha="-233.23454995987746" sparseCutoff="1.0000000000000000"/>
      <sparseX i="333" alpha="-64.034349689082731" sparseCutoff="1.0000000000000000"/>
      <sparseX i="334" alpha="-1743.4540365926828" sparseCutoff="1.0000000000000000"/>
      <sparseX i="335" alpha="472.91735254227137" sparseCutoff="1.0000000000000000"/>
      <sparseX i="336" alpha="254.96268537534826" sparseCutoff="1.0000000000000000"/>
      <sparseX i="337" alpha="2380.8868183920795" sparseCutoff="1.0000000000000000"/>
      <sparseX i="338" alpha="-2.6536189140928119" sparseCutoff="1.0000000000000000"/>
      <sparseX i="339" alpha="585.48283396033173" sparseCutoff="1.0000000000000000"/>
      <sparseX i="340" alpha="-46.867321320813637" sparseCutoff="1.0000000000000000"/>
      <sparseX i="341" alpha="414.06606650086798" sparseCutoff="1.0000000000000000"/>
      <sparseX i="342" alpha="175.89676064092140" sparseCutoff="1.0000000000000000"/>
      <sparseX i="343" alpha="-421.82237271497439" sparseCutoff="1.0000000000000000"/>
      <sparseX i="344" alpha="384.93971268709078" sparseCutoff="1.0000000000000000"/>
      <sparseX i="345" alpha="99.959204808690913" sparseCutoff="1.0000000000000000"/>
      <sparseX i="346" alpha="652.61307968048447" sparseCutoff="1.0000000000000000"/>
      <sparseX i="347" alpha="576.65056841075295" sparseCutoff="1.0000000000000000"/>
      <sparseX i="348" alpha="1556.6681637186000" sparseCutoff="1.0000000000000000"/>
      <sparseX i="349" alpha="-1535.1701313988995" sparseCutoff="1.0000000000000000"/>
      <sparseX i="350" alpha="-922.57663852202745" sparseCutoff="1.0000000000000000"/>
      <sparseX i="351" alpha="1362.3912620783105" sparseCutoff="1.0000000000000000"/>
      <sparseX i="352" alpha="-2179.8517918602452" sparseCutoff="1.0000000000000000"/>
      <sparseX i="353" alpha="-343.07122072887165" sparseCutoff="1.0000000000000000"/>
      <sparseX i="354" alpha="-1317.4208331429186" sparseCutoff="1.0000000000000000"/>
      <sparseX i="355" alpha="-4154.0717147996311" sparseCutoff="1.0000000000000000"/>
      <sparseX i="356" alpha="1329.5824520214319" sparseCutoff="1.0000000000000000"/>
      <sparseX i="357" alpha="-477.97398596608929" sparseCutoff="1.0000000000000000"/>
      <sparseX i="358" alpha="342.97502838296737" sparseCutoff="1.0000000000000000"/>
      <sparseX i="359" alpha="-114.12724968139671" sparseCutoff="1.0000000000000000"/>
      <sparseX i="360" alpha="-195.44061336714003" sparseCutoff="1.0000000000000000"/>
      <sparseX i="361" alpha="-1042.6607020327083" sparseCutoff="1.0000000000000000"/>
      <sparseX i="362" alpha="564.04014456852519" sparseCutoff="1.0000000000000000"/>
      <sparseX i="363" alpha="2222.1786639043407" sparseCutoff="1.0000000000000000"/>
      <sparseX i="364" alpha="258.74749740395896" sparseCutoff="1.0000000000000000"/>
      <sparseX i="365" alpha="-2793.0937867116741" sparseCutoff="1.0000000000000000"/>
      <sparseX i="366" alpha="765.64226665009551" sparseCutoff="1.0000000000000000"/>
      <sparseX i="367" alpha="-87.337814349347639" sparseCutoff="1.0000000000000000"/>
      <sparseX i="368" alpha="-575.74080504290805" sparseCutoff="1.0000000000000000"/>
      <sparseX i="369" alpha="-811.79424641983030" sparseCutoff="1.0000000000000000"/>
      <sparseX i="370" alpha="-817.68910693530245" sparseCutoff="1.0000000000000000"/>
      <sparseX i="371" alpha="1476.1107380633114" sparseCutoff="1.0000000000000000"/>
      <sparseX i="372" alpha="543.53485362527647" sparseCutoff="1.0000000000000000"/>
      <sparseX i="373" alpha="832.13182264028649" sparseCutoff="1.0000000000000000"/>
      <sparseX i="374" alpha="-913.09849236769730" sparseCutoff="1.0000000000000000"/>
      <sparseX i="375" alpha="-347.25931063924742" sparseCutoff="1.0000000000000000"/>
      <sparseX i="376" alpha="619.72682417365422" sparseCutoff="1.0000000000000000"/>
      <sparseX i="377" alpha="1067.8960344938143" sparseCutoff="1.0000000000000000"/>
      <sparseX i="378" alpha="-244.31855695137929" sparseCutoff="1.0000000000000000"/>
      <sparseX i="379" alpha="-182.76315556847686" sparseCutoff="1.0000000000000000"/>
      <sparseX i="380" alpha="1009.1235798981836" sparseCutoff="1.0000000000000000"/>
      <sparseX i="381" alpha="909.05781515312117" sparseCutoff="1.0000000000000000"/>
      <sparseX i="382" alpha="323.66174318879490" sparseCutoff="1.0000000000000000"/>
      <sparseX i="383" alpha="-428.87372815051737" sparseCutoff="1.0000000000000000"/>
      <sparseX i="384" alpha="173.42255215803772" sparseCutoff="1.0000000000000000"/>
      <sparseX i="385" alpha="-158.32207298548096" sparseCutoff="1.0000000000000000"/>
      <sparseX i="386" alpha="-646.45156068291806" sparseCutoff="1.0000000000000000"/>
      <sparseX i="387" alpha="-995.98825993923379" sparseCutoff="1.0000000000000000"/>
      <sparseX i="388" alpha="1716.7092771835196" sparseCutoff="1.0000000000000000"/>
      <sparseX i="389" alpha="807.05525036246183" sparseCutoff="1.0000000000000000"/>
      <sparseX i="390" alpha="1547.6065535607472" sparseCutoff="1.0000000000000000"/>
      <sparseX i="391" alpha="-1157.4863069165183" sparseCutoff="1.0000000000000000"/>
      <sparseX i="392" alpha="-582.36079460691076" sparseCutoff="1.0000000000000000"/>
      <sparseX i="393" alpha="350.04787018718679" sparseCutoff="1.0000000000000000"/>
      <sparseX i="394" alpha="-395.85813289900085" sparseCutoff="1.0000000000000000"/>
      <sparseX i="395" alpha="-396.72799171888443" sparseCutoff="1.0000000000000000"/>
      <sparseX i="396" alpha="1265.2355452590612" sparseCutoff="1.0000000000000000"/>
      <sparseX i="397" alpha="532.07004792837313" sparseCutoff="1.0000000000000000"/>
      <sparseX i="398" alpha="-1684.3360693556072" sparseCutoff="1.0000000000000000"/>
      <sparseX i="399" alpha="228.10324383016970" sparseCutoff="1.0000000000000000"/>
      <sparseX i="400" alpha="344.67920211672913" sparseCutoff="1.0000000000000000"/>
      <sparseX i="401" alpha="-70.738262236865936" sparseCutoff="1.0000000000000000"/>
      <sparseX i="402" alpha="-792.63966686261074" sparseCutoff="1.0000000000000000"/>
      <sparseX i="403" alpha="122.93620412004823" sparseCutoff="1.0000000000000000"/>
      <sparseX i="404" alpha="-615.11100096385894" sparseCutoff="1.0000000000000000"/>
      <sparseX i="405" alpha="80.741225742734500" sparseCutoff="1.0000000000000000"/>
      <sparseX i="406" alpha="332.73363744788503" sparseCutoff="1.0000000000000000"/>
      <sparseX i="407" alpha="846.16372984269788" sparseCutoff="1.0000000000000000"/>
      <sparseX i="408" alpha="-353.57586030460493" sparseCutoff="1.0000000000000000"/>
      <sparseX i="409" alpha="-388.76268349212211" sparseCutoff="1.0000000000000000"/>
      <sparseX i="410" alpha="396.57965845480561" sparseCutoff="1.0000000000000000"/>
      <sparseX i="411" alpha="428.86657326191971" sparseCutoff="1.0000000000000000"/>
      <sparseX i="412" alpha="-171.89817928268687" sparseCutoff="1.0000000000000000"/>
      <sparseX i="413" alpha="-771.96971928887797" sparseCutoff="1.0000000000000000"/>
      <sparseX i="414" alpha="86.781371900987764" sparseCutoff="1.0000000000000000"/>
      <sparseX i="415" alpha="-829.05563312683967" sparseCutoff="1.0000000000000000"/>
      <sparseX i="416" alpha="-223.01353022024193" sparseCutoff="1.0000000000000000"/>
      <sparseX i="417" alpha="170.86565670244030" sparseCutoff="1.0000000000000000"/>
      <sparseX i="418" alpha="-1533.8103148414666" sparseCutoff="1.0000000000000000"/>
      <sparseX i="419" alpha="-487.31326611943183" sparseCutoff="1.0000000000000000"/>
      <sparseX i="420" alpha="-494.54762775634833" sparseCutoff="1.0000000000000000"/>
      <sparseX i="421" alpha="130.89029360638497" sparseCutoff="1.0000000000000000"/>
      <sparseX i="422" alpha="-212.77884927603822" sparseCutoff="1.0000000000000000"/>
      <sparseX i="423" alpha="1355.7067139747955" sparseCutoff="1.0000000000000000"/>
      <sparseX i="424" alpha="209.59415040461857" sparseCutoff="1.0000000000000000"/>
      <sparseX i="425" alpha="428.61165009951395" sparseCutoff="1.0000000000000000"/>
      <sparseX i="426" alpha="-155.45714784056628" sparseCutoff="1.0000000000000000"/>
      <sparseX i="427" alpha="-76.561219743281825" sparseCutoff="1.0000000000000000"/>
      <sparseX i="428" alpha="-376.69067198074481" sparseCutoff="1.0000000000000000"/>
      <sparseX i="429" alpha="987.52498561405366" sparseCutoff="1.0000000000000000"/>
      <sparseX i="430" alpha="-2755.7409788904401" sparseCutoff="1.0000000000000000"/>
      <sparseX i="431" alpha="180.53713501878667" sparseCutoff="1.0000000000000000"/>
      <sparseX i="432" alpha="-1093.6186963320579" sparseCutoff="1.0000000000000000"/>
      <sparseX i="433" alpha="18.780078903842440" sparseCutoff="1.0000000000000000"/>
      <sparseX i="434" alpha="272.81941017036570" sparseCutoff="1.0000000000000000"/>
      <sparseX i="435" alpha="-812.46443014048293" sparseCutoff="1.0000000000000000"/>
      <sparseX i="436" alpha="-717.47168171492319" sparseCutoff="1.0000000000000000"/>
      <sparseX i="437" alpha="208.39200043298362" sparseCutoff="1.0000000000000000"/>
      <sparseX i="438" alpha="978.27171665130379" sparseCutoff="1.0000000000000000"/>
      <sparseX i="439" alpha="-35.290609180838032" sparseCutoff="1.0000000000000000"/>
      <sparseX i="440" alpha="-336.29963963070247" sparseCutoff="1.0000000000000000"/>
      <sparseX i="441" alpha="178.31181658022126" sparseCutoff="1.0000000000000000"/>
      <sparseX i="442" alpha="-56.779805722019482" sparseCutoff="1.0000000000000000"/>
      <sparseX i="443" alpha="102.35202920954343" sparseCutoff="1.0000000000000000"/>
      <sparseX i="444" alpha="-571.34085106720761" sparseCutoff="1.0000000000000000"/>
      <sparseX i="445" alpha="-735.68142852355152" sparseCutoff="1.0000000000000000"/>
      <sparseX i="446" alpha="-58.615715426272317" sparseCutoff="1.0000000000000000"/>
      <sparseX i="447" alpha="-329.70654577228493" sparseCutoff="1.0000000000000000"/>
      <sparseX i="448" alpha="206.98801307216323" sparseCutoff="1.0000000000000000"/>
      <sparseX i="449" alpha="1404.1640834990883" sparseCutoff="1.0000000000000000"/>
      <sparseX i="450" alpha="-364.45073572480720" sparseCutoff="1.0000000000000000"/>
      <sparseX i="451" alpha="-228.77061934141136" sparseCutoff="1.0000000000000000"/>
      <sparseX i="452" alpha="-788.18784787193579" sparseCutoff="1.0000000000000000"/>
      <sparseX i="453" alpha="546.19485381243226" sparseCutoff="1.0000000000000000"/>
      <sparseX i="454" alpha="-464.63072322990445" sparseCutoff="1.0000000000000000"/>
      <sparseX i="455" alpha="-552.07458521118349" sparseCutoff="1.0000000000000000"/>
      <sparseX i="456" alpha="257.98129267665053" sparseCutoff="1.0000000000000000"/>
      <sparseX i="457" alpha="89.671254194994162" sparseCutoff="1.0000000000000000"/>
      <sparseX i="458" alpha="-1354.4378807982762" sparseCutoff="1.0000000000000000"/>
      <sparseX i="459" alpha="-511.61787046277510" sparseCutoff="1.0000000000000000"/>
      <sparseX i="460" alpha="-209.99717896005379" sparseCutoff="1.0000000000000000"/>
      <sparseX i="461" alpha="-379.80857250903739" sparseCutoff="1.0000000000000000"/>
      <sparseX i="462" alpha="274.89018418085749" sparseCutoff="1.0000000000000000"/>
      <sparseX i="463" alpha="-107.11587615424713" sparseCutoff="1.0000000000000000"/>
      <sparseX i="464" alpha="-1946.8344772083033" sparseCutoff="1.0000000000000000"/>
      <sparseX i="465" alpha="623.10920857840301" sparseCutoff="1.0000000000000000"/>
      <sparseX i="466" alpha="2508.7678088331077" sparseCutoff="1.0000000000000000"/>
      <sparseX i="467" alpha="1031.0613822039977" sparseCutoff="1.0000000000000000"/>
      <sparseX i="468" alpha="88.774711354914089" sparseCutoff="1.0000000000000000"/>
      <sparseX i="469" alpha="1074.0795085387549" sparseCutoff="1.0000000000000000"/>
      <sparseX i="470" alpha="-586.18861484860577" sparseCutoff="1.0000000000000000"/>
      <sparseX i="471" alpha="-317.96167408889647" sparseCutoff="1.0000000000000000"/>
      <sparseX i="472" alpha="-148.70205879817712" sparseCutoff="1.0000000000000000"/>
      <sparseX i="473" alpha="-413.76104533095537" sparseCutoff="1.0000000000000000"/>
      <sparseX i="474" alpha="550.99357616740463" sparseCutoff="1.0000000000000000"/>
      <sparseX i="475" alpha="-3610.7850462581096" sparseCutoff="1.0000000000000000"/>
      <sparseX i="476" alpha="-312.53749585801756" sparseCutoff="1.0000000000000000"/>
      <sparseX i="477" alpha="-1193.4549164657487" sparseCutoff="1.0000000000000000"/>
      <sparseX i="478" alpha="-1593.5705039241154" sparseCutoff="1.0000000000000000"/>
      <sparseX i="479" alpha="771.20164269360725" sparseCutoff="1.0000000000000000"/>
      <sparseX i="480" alpha="166.32092046379049" sparseCutoff="1.0000000000000000"/>
      <sparseX i="481" alpha="-562.71023971501097" sparseCutoff="1.0000000000000000"/>
      <sparseX i="482" alpha="-72.715473241023972" sparseCutoff="1.0000000000000000"/>
      <sparseX i="483" alpha="-1929.4378861018379" sparseCutoff="1.0000000000000000"/>
      <sparseX i="484" alpha="177.75581057344326" sparseCutoff="1.0000000000000000"/>
      <sparseX i="485" alpha="1112.6094945098355" sparseCutoff="1.0000000000000000"/>
      <sparseX i="486" alpha="1865.5713840510414" sparseCutoff="1.0000000000000000"/>
      <sparseX i="487" alpha="-80.703503948281252" sparseCutoff="1.0000000000000000"/>
      <sparseX i="488" alpha="1848.1225406201829" sparseCutoff="1.0000000000000000"/>
      <sparseX i="489" alpha="-344.67665593670415" sparseCutoff="1.0000000000000000"/>
      <sparseX i="490" alpha="91.484264191393748" sparseCutoff="1.0000000000000000"/>
      <sparseX i="491" alpha="685.18208615948049" sparseCutoff="1.0000000000000000"/>
      <sparseX i="492" alpha="289.12935783020453" sparseCutoff="1.0000000000000000"/>
      <sparseX i="493" alpha="-119.75361273936038" sparseCutoff="1.0000000000000000"/>
      <sparseX i="494" alpha="-652.04885792767664" sparseCutoff="1.0000000000000000"/>
      <sparseX i="495" alpha="115.84225163581138" sparseCutoff="1.0000000000000000"/>
      <sparseX i="496" alpha="-187.49095477109532" sparseCutoff="1.0000000000000000"/>
      <sparseX i="497" alpha="-13.987611008009704" sparseCutoff="1.0000000000000000"/>
      <sparseX i="498" alpha="-77.291130551205327" sparseCutoff="1.0000000000000000"/>
      <sparseX i="499" alpha="-349.22712484557667" sparseCutoff="1.0000000000000000"/>
      <sparseX i="500" alpha="1077.5658821372310" sparseCutoff="1.0000000000000000"/>
    </gpCoordinates>
    <gpCoordinates label="GAP_2026_7_9_180_22_12_55_3192" dimensions="841" signal_variance="1.0000000000000000" signal_mean=".00000000000000000E+000" sparsified="T" n_permutations="1" covariance_type="2" zeta="2.0000000000000000" n_sparseX="500" sparseX_filename="gap_new.xml.sparseX.GAP_2026_7_9_180_22_12_55_3192" sparseX_md5sum="6a527b483928b6468051f4e7561c2425">
      <descriptor>soap cutoff=3.0 n_max=7 l_max=7 delta=1 covariance_type=dot_product atom_sigma=0.5 n_sparse=500 zeta=2 n_species=2 Z=1 species_Z={8 1 }</descriptor>
      <permutation i="1">1  </permutation>
      <sparseX i="1" alpha="57.875314029666264" sparseCutoff="1.0000000000000000"/>
      <sparseX i="2" alpha="168.89997575452881" sparseCutoff="1.0000000000000000"/>
      <sparseX i="3" alpha="-13.470653064294941" sparseCutoff="1.0000000000000000"/>
      <sparseX i="4" alpha="57.531992167681175" sparseCutoff="1.0000000000000000"/>
      <sparseX i="5" alpha="-15.562824692524902" sparseCutoff="1.0000000000000000"/>
      <sparseX i="6" alpha="82.844485110833645" sparseCutoff="1.0000000000000000"/>
      <sparseX i="7" alpha="-40.544273041382489" sparseCutoff="1.0000000000000000"/>
      <sparseX i="8" alpha="21.193805677619036" sparseCutoff="1.0000000000000000"/>
      <sparseX i="9" alpha="-68.230410447641646" sparseCutoff="1.0000000000000000"/>
      <sparseX i="10" alpha="-6.4304605656109537" sparseCutoff="1.0000000000000000"/>
      <sparseX i="11" alpha="245.09254196684196" sparseCutoff="1.0000000000000000"/>
      <sparseX i="12" alpha="-.15797476595153473" sparseCutoff="1.0000000000000000"/>
      <sparseX i="13" alpha="8.9734548895786794" sparseCutoff="1.0000000000000000"/>
      <sparseX i="14" alpha="-35.696379477138933" sparseCutoff="1.0000000000000000"/>
      <sparseX i="15" alpha="-11.544672400744487" sparseCutoff="1.0000000000000000"/>
      <sparseX i="16" alpha="-56.614036481551025" sparseCutoff="1.0000000000000000"/>
      <sparseX i="17" alpha="113.60782177819068" sparseCutoff="1.0000000000000000"/>
      <sparseX i="18" alpha="62.636094445498209" sparseCutoff="1.0000000000000000"/>
      <sparseX i="19" alpha="114.73775316612738" sparseCutoff="1.0000000000000000"/>
      <sparseX i="20" alpha="-4.8902962315629539" sparseCutoff="1.0000000000000000"/>
      <sparseX i="21" alpha="-3.7757176922217917" sparseCutoff="1.0000000000000000"/>
      <sparseX i="22" alpha="32.035968939908685" sparseCutoff="1.0000000000000000"/>
      <sparseX i="23" alpha="22.965837938993676" sparseCutoff="1.0000000000000000"/>
      <sparseX i="24" alpha="18.644206178056212" sparseCutoff="1.0000000000000000"/>
      <sparseX i="25" alpha="-115.59617745769039" sparseCutoff="1.0000000000000000"/>
      <sparseX i="26" alpha="38.351168227898164" sparseCutoff="1.0000000000000000"/>
      <sparseX i="27" alpha="35.740084655196036" sparseCutoff="1.0000000000000000"/>
      <sparseX i="28" alpha="273.56964170297334" sparseCutoff="1.0000000000000000"/>
      <sparseX i="29" alpha="228.79098209577657" sparseCutoff="1.0000000000000000"/>
      <sparseX i="30" alpha="125.56095822598758" sparseCutoff="1.0000000000000000"/>
      <sparseX i="31" alpha="8.2390459768888906" sparseCutoff="1.0000000000000000"/>
      <sparseX i="32" alpha="-14.951026522987288" sparseCutoff="1.0000000000000000"/>
      <sparseX i="33" alpha="26.356125468837757" sparseCutoff="1.0000000000000000"/>
      <sparseX i="34" alpha="56.880787857849967" sparseCutoff="1.0000000000000000"/>
      <sparseX i="35" alpha="86.778280359952817" sparseCutoff="1.0000000000000000"/>
      <sparseX i="36" alpha="-56.706201162500598" sparseCutoff="1.0000000000000000"/>
      <sparseX i="37" alpha="-211.98292073530629" sparseCutoff="1.0000000000000000"/>
      <sparseX i="38" alpha="5.8597921010698828" sparseCutoff="1.0000000000000000"/>
      <sparseX i="39" alpha="-16.678521815347324" sparseCutoff="1.0000000000000000"/>
      <sparseX i="40" alpha="-44.227250785402966" sparseCutoff="1.0000000000000000"/>
      <sparseX i="41" alpha="-215.48293921498163" sparseCutoff="1.0000000000000000"/>
      <sparseX i="42" alpha="-27.602193183523724" sparseCutoff="1.0000000000000000"/>
      <sparseX i="43" alpha="3.8422432152645558" sparseCutoff="1.0000000000000000"/>
      <sparseX i="44" alpha="-32.555001292673630" sparseCutoff="1.0000000000000000"/>
      <sparseX i="45" alpha="-42.347358409593298" sparseCutoff="1.0000000000000000"/>
      <sparseX i="46" alpha="22.843082463494731" sparseCutoff="1.0000000000000000"/>
      <sparseX i="47" alpha="-52.984593170780869" sparseCutoff="1.0000000000000000"/>
      <sparseX i="48" alpha="-54.250107943883179" sparseCutoff="1.0000000000000000"/>
      <sparseX i="49" alpha="41.412199901784319" sparseCutoff="1.0000000000000000"/>
      <sparseX i="50" alpha="-34.944441753446114" sparseCutoff="1.0000000000000000"/>
      <sparseX i="51" alpha="-118.52505921612548" sparseCutoff="1.0000000000000000"/>
      <sparseX i="52" alpha="20.572203840423679" sparseCutoff="1.0000000000000000"/>
      <sparseX i="53" alpha="45.004913654446909" sparseCutoff="1.0000000000000000"/>
      <sparseX i="54" alpha="39.068880516078913" sparseCutoff="1.0000000000000000"/>
      <sparseX i="55" alpha="-31.416488453478589" sparseCutoff="1.0000000000000000"/>
      <sparseX i="56" alpha="5.0790409575448194" sparseCutoff="1.0000000000000000"/>
      <sparseX i="57" alpha="50.568869812202301" sparseCutoff="1.0000000000000000"/>
      <sparseX i="58" alpha="43.558329274344885" sparseCutoff="1.0000000000000000"/>
      <sparseX i="59" alpha="-11.012175454053585" sparseCutoff="1.0000000000000000"/>
      <sparseX i="60" alpha="-200.94615083229277" sparseCutoff="1.0000000000000000"/>
      <sparseX i="61" alpha="17.311263607773057" sparseCutoff="1.0000000000000000"/>
      <sparseX i="62" alpha="-72.412279375251828" sparseCutoff="1.0000000000000000"/>
      <sparseX i="63" alpha="148.61964925037913" sparseCutoff="1.0000000000000000"/>
      <sparseX i="64" alpha="-29.310098341440252" sparseCutoff="1.0000000000000000"/>
      <sparseX i="65" alpha="24.028858665591422" sparseCutoff="1.0000000000000000"/>
      <sparseX i="66" alpha="21.766014805138287" sparseCutoff="1.0000000000000000"/>
      <sparseX i="67" alpha="-21.289275467025423" sparseCutoff="1.0000000000000000"/>
      <sparseX i="68" alpha="16.934415847718913" sparseCutoff="1.0000000000000000"/>
      <sparseX i="69" alpha="1.0936332835272371" sparseCutoff="1.0000000000000000"/>
      <sparseX i="70" alpha="-41.342467230867612" sparseCutoff="1.0000000000000000"/>
      <sparseX i="71" alpha="32.792494085751592" sparseCutoff="1.0000000000000000"/>
      <sparseX i="72" alpha="-59.612476251104965" sparseCutoff="1.0000000000000000"/>
      <sparseX i="73" alpha="33.693943938198849" sparseCutoff="1.0000000000000000"/>
      <sparseX i="74" alpha="95.219878391523395" sparseCutoff="1.0000000000000000"/>
      <sparseX i="75" alpha="31.033778668879254" sparseCutoff="1.0000000000000000"/>
      <sparseX i="76" alpha="-61.301340275824643" sparseCutoff="1.0000000000000000"/>
      <sparseX i="77" alpha="-158.15765554677199" sparseCutoff="1.0000000000000000"/>
      <sparseX i="78" alpha="-92.002668678446355" sparseCutoff="1.0000000000000000"/>
      <sparseX i="79" alpha="25.714242236479567" sparseCutoff="1.0000000000000000"/>
      <sparseX i="80" alpha="-15.502722784127693" sparseCutoff="1.0000000000000000"/>
      <sparseX i="81" alpha="126.52187413625961" sparseCutoff="1.0000000000000000"/>
      <sparseX i="82" alpha="318.46257227351219" sparseCutoff="1.0000000000000000"/>
      <sparseX i="83" alpha="-127.05433508587070" sparseCutoff="1.0000000000000000"/>
      <sparseX i="84" alpha="-119.94545916199637" sparseCutoff="1.0000000000000000"/>
      <sparseX i="85" alpha="52.087316076276842" sparseCutoff="1.0000000000000000"/>
      <sparseX i="86" alpha="45.070367254775142" sparseCutoff="1.0000000000000000"/>
      <sparseX i="87" alpha="-15.534219838048219" sparseCutoff="1.0000000000000000"/>
      <sparseX i="88" alpha="-38.486900877217039" sparseCutoff="1.0000000000000000"/>
      <sparseX i="89" alpha="-13.620339133640122" sparseCutoff="1.0000000000000000"/>
      <sparseX i="90" alpha="157.83516893130476" sparseCutoff="1.0000000000000000"/>
      <sparseX i="91" alpha="194.01069187843785" sparseCutoff="1.0000000000000000"/>
      <sparseX i="92" alpha="-84.119745787835868" sparseCutoff="1.0000000000000000"/>
      <sparseX i="93" alpha="17.035693574792280" sparseCutoff="1.0000000000000000"/>
      <sparseX i="94" alpha="-30.264379343222757" sparseCutoff="1.0000000000000000"/>
      <sparseX i="95" alpha="23.676921067288635" sparseCutoff="1.0000000000000000"/>
      <sparseX i="96" alpha="18.232504325726143" sparseCutoff="1.0000000000000000"/>
      <sparseX i="97" alpha="-10.177621532110356" sparseCutoff="1.0000000000000000"/>
      <sparseX i="98" alpha="-11.632553525685172" sparseCutoff="1.0000000000000000"/>
      <sparseX i="99" alpha="52.895476009966181" sparseCutoff="1.0000000000000000"/>
      <sparseX i="100" alpha="150.35757793450009" sparseCutoff="1.0000000000000000"/>
      <sparseX i="101" alpha="-20.828906688790198" sparseCutoff="1.0000000000000000"/>
      <sparseX i="102" alpha="124.44061615400273" sparseCutoff="1.0000000000000000"/>
      <sparseX i="103" alpha="25.498717726856576" sparseCutoff="1.0000000000000000"/>
      <sparseX i="104" alpha="30.257077932862625" sparseCutoff="1.0000000000000000"/>
      <sparseX i="105" alpha="-102.64678501908773" sparseCutoff="1.0000000000000000"/>
      <sparseX i="106" alpha="-144.33735535937541" sparseCutoff="1.0000000000000000"/>
      <sparseX i="107" alpha="-32.949377664936144" sparseCutoff="1.0000000000000000"/>
      <sparseX i="108" alpha="67.910900809722023" sparseCutoff="1.0000000000000000"/>
      <sparseX i="109" alpha="-111.70271993476057" sparseCutoff="1.0000000000000000"/>
      <sparseX i="110" alpha="32.268996509940813" sparseCutoff="1.0000000000000000"/>
      <sparseX i="111" alpha="91.104142907336453" sparseCutoff="1.0000000000000000"/>
      <sparseX i="112" alpha="178.44561110404726" sparseCutoff="1.0000000000000000"/>
      <sparseX i="113" alpha="78.003065674152836" sparseCutoff="1.0000000000000000"/>
      <sparseX i="114" alpha="-31.779833741595539" sparseCutoff="1.0000000000000000"/>
      <sparseX i="115" alpha="5.3990326745842703" sparseCutoff="1.0000000000000000"/>
      <sparseX i="116" alpha="-18.662281264038260" sparseCutoff="1.0000000000000000"/>
      <sparseX i="117" alpha="-57.553792799113481" sparseCutoff="1.0000000000000000"/>
      <sparseX i="118" alpha="-79.119428822931965" sparseCutoff="1.0000000000000000"/>
      <sparseX i="119" alpha="15.235904806658558" sparseCutoff="1.0000000000000000"/>
      <sparseX i="120" alpha="-68.575528862290554" sparseCutoff="1.0000000000000000"/>
      <sparseX i="121" alpha="-156.89450896465277" sparseCutoff="1.0000000000000000"/>
      <sparseX i="122" alpha="-129.98027470347182" sparseCutoff="1.0000000000000000"/>
      <sparseX i="123" alpha="17.465944927810565" sparseCutoff="1.0000000000000000"/>
      <sparseX i="124" alpha="-12.603441936531597" sparseCutoff="1.0000000000000000"/>
      <sparseX i="125" alpha="-77.259603625708735" sparseCutoff="1.0000000000000000"/>
      <sparseX i="126" alpha="-25.552032361356158" sparseCutoff="1.0000000000000000"/>
      <sparseX i="127" alpha="31.088005483979206" sparseCutoff="1.0000000000000000"/>
      <sparseX i="128" alpha="-24.030119398959307" sparseCutoff="1.0000000000000000"/>
      <sparseX i="129" alpha="-6.6731034125053021" sparseCutoff="1.0000000000000000"/>
      <sparseX i="130" alpha="21.730630432376270" sparseCutoff="1.0000000000000000"/>
      <sparseX i="131" alpha="-145.24781578532890" sparseCutoff="1.0000000000000000"/>
      <sparseX i="132" alpha="92.631136566780512" sparseCutoff="1.0000000000000000"/>
      <sparseX i="133" alpha="128.07109701397610" sparseCutoff="1.0000000000000000"/>
      <sparseX i="134" alpha="102.19572695163913" sparseCutoff="1.0000000000000000"/>
      <sparseX i="135" alpha="-14.366420273716470" sparseCutoff="1.0000000000000000"/>
      <sparseX i="136" alpha="24.783111981650471" sparseCutoff="1.0000000000000000"/>
      <sparseX i="137" alpha="-50.852424414717682" sparseCutoff="1.0000000000000000"/>
      <sparseX i="138" alpha="-45.499836179102985" sparseCutoff="1.0000000000000000"/>
      <sparseX i="139" alpha="-26.097426785428077" sparseCutoff="1.0000000000000000"/>
      <sparseX i="140" alpha="-45.963737948228875" sparseCutoff="1.0000000000000000"/>
      <sparseX i="141" alpha="75.087903721945509" sparseCutoff="1.0000000000000000"/>
      <sparseX i="142" alpha="25.960277212399564" sparseCutoff="1.0000000000000000"/>
      <sparseX i="143" alpha="-130.15976967900025" sparseCutoff="1.0000000000000000"/>
      <sparseX i="144" alpha="-38.064709881593110" sparseCutoff="1.0000000000000000"/>
      <sparseX i="145" alpha="-15.829127175806006" sparseCutoff="1.0000000000000000"/>
      <sparseX i="146" alpha="83.962610983562712" sparseCutoff="1.0000000000000000"/>
      <sparseX i="147" alpha="-2.8115026625264767" sparseCutoff="1.0000000000000000"/>
      <sparseX i="148" alpha="-70.677144234749193" sparseCutoff="1.0000000000000000"/>
      <sparseX i="149" alpha="-8.9360599283717317" sparseCutoff="1.0000000000000000"/>
      <sparseX i="150" alpha="-3.9051302022040506" sparseCutoff="1.0000000000000000"/>
      <sparseX i="151" alpha="27.730969635836214" sparseCutoff="1.0000000000000000"/>
      <sparseX i="152" alpha="56.881619028512880" sparseCutoff="1.0000000000000000"/>
      <sparseX i="153" alpha="-10.439604085805316" sparseCutoff="1.0000000000000000"/>
      <sparseX i="154" alpha="257.66340152807356" sparseCutoff="1.0000000000000000"/>
      <sparseX i="155" alpha="2.6020882507192229" sparseCutoff="1.0000000000000000"/>
      <sparseX i="156" alpha="-99.894548041548759" sparseCutoff="1.0000000000000000"/>
      <sparseX i="157" alpha="30.265239737097797" sparseCutoff="1.0000000000000000"/>
      <sparseX i="158" alpha="-67.076297358409207" sparseCutoff="1.0000000000000000"/>
      <sparseX i="159" alpha="50.461084910760320" sparseCutoff="1.0000000000000000"/>
      <sparseX i="160" alpha="14.231724200426624" sparseCutoff="1.0000000000000000"/>
      <sparseX i="161" alpha="-88.492327094677663" sparseCutoff="1.0000000000000000"/>
      <sparseX i="162" alpha="-13.780309749251606" sparseCutoff="1.0000000000000000"/>
      <sparseX i="163" alpha="69.533966542425020" sparseCutoff="1.0000000000000000"/>
      <sparseX i="164" alpha="29.769882857820310" sparseCutoff="1.0000000000000000"/>
      <sparseX i="165" alpha="88.950003171480560" sparseCutoff="1.0000000000000000"/>
      <sparseX i="166" alpha="-36.243314802737302" sparseCutoff="1.0000000000000000"/>
      <sparseX i="167" alpha="-113.70091687827276" sparseCutoff="1.0000000000000000"/>
      <sparseX i="168" alpha="-165.70306291179392" sparseCutoff="1.0000000000000000"/>
      <sparseX i="169" alpha="-181.32842351688785" sparseCutoff="1.0000000000000000"/>
      <sparseX i="170" alpha="-71.625829414545777" sparseCutoff="1.0000000000000000"/>
      <sparseX i="171" alpha="-204.13857055880553" sparseCutoff="1.0000000000000000"/>
      <sparseX i="172" alpha="79.342645085421609" sparseCutoff="1.0000000000000000"/>
      <sparseX i="173" alpha="-81.556601103595199" sparseCutoff="1.0000000000000000"/>
      <sparseX i="174" alpha="-144.14269998800009" sparseCutoff="1.0000000000000000"/>
      <sparseX i="175" alpha="-151.97016786816729" sparseCutoff="1.0000000000000000"/>
      <sparseX i="176" alpha="-.62447628302451352" sparseCutoff="1.0000000000000000"/>
      <sparseX i="177" alpha="25.898114502991749" sparseCutoff="1.0000000000000000"/>
      <sparseX i="178" alpha="-2.5943928712833277" sparseCutoff="1.0000000000000000"/>
      <sparseX i="179" alpha="-4.0975674764880345" sparseCutoff="1.0000000000000000"/>
      <sparseX i="180" alpha="30.758810730714082" sparseCutoff="1.0000000000000000"/>
      <sparseX i="181" alpha="159.71689817759034" sparseCutoff="1.0000000000000000"/>
      <sparseX i="182" alpha="102.23235352824184" sparseCutoff="1.0000000000000000"/>
      <sparseX i="183" alpha="5.1193338471557777" sparseCutoff="1.0000000000000000"/>
      <sparseX i="184" alpha="-30.154844942732037" sparseCutoff="1.0000000000000000"/>
      <sparseX i="185" alpha="-8.2858457740389042" sparseCutoff="1.0000000000000000"/>
      <sparseX i="186" alpha="92.097635245873121" sparseCutoff="1.0000000000000000"/>
      <sparseX i="187" alpha="60.802972074388798" sparseCutoff="1.0000000000000000"/>
      <sparseX i="188" alpha="-48.685920087389903" sparseCutoff="1.0000000000000000"/>
      <sparseX i="189" alpha="3.8387778153878549" sparseCutoff="1.0000000000000000"/>
      <sparseX i="190" alpha="17.050600525085184" sparseCutoff="1.0000000000000000"/>
      <sparseX i="191" alpha="-194.50615654859109" sparseCutoff="1.0000000000000000"/>
      <sparseX i="192" alpha="86.696543589421694" sparseCutoff="1.0000000000000000"/>
      <sparseX i="193" alpha="-195.37962575957656" sparseCutoff="1.0000000000000000"/>
      <sparseX i="194" alpha="99.550064697556721" sparseCutoff="1.0000000000000000"/>
      <sparseX i="195" alpha="58.270461051036449" sparseCutoff="1.0000000000000000"/>
      <sparseX i="196" alpha="-132.34982344942784" sparseCutoff="1.0000000000000000"/>
      <sparseX i="197" alpha="18.182587956507092" sparseCutoff="1.0000000000000000"/>
      <sparseX i="198" alpha="-46.856574815613946" sparseCutoff="1.0000000000000000"/>
      <sparseX i="199" alpha="63.397319109593894" sparseCutoff="1.0000000000000000"/>
      <sparseX i="200" alpha="183.30963369798374" sparseCutoff="1.0000000000000000"/>
      <sparseX i="201" alpha="12.265335553385349" sparseCutoff="1.0000000000000000"/>
      <sparseX i="202" alpha="253.65208111891212" sparseCutoff="1.0000000000000000"/>
      <sparseX i="203" alpha="45.922874533826409" sparseCutoff="1.0000000000000000"/>
      <sparseX i="204" alpha="29.098776772408247" sparseCutoff="1.0000000000000000"/>
      <sparseX i="205" alpha="-33.063961098327617" sparseCutoff="1.0000000000000000"/>
      <sparseX i="206" alpha="-16.421400138561481" sparseCutoff="1.0000000000000000"/>
      <sparseX i="207" alpha="182.72204582640168" sparseCutoff="1.0000000000000000"/>
      <sparseX i="208" alpha="-79.441141035259648" sparseCutoff="1.0000000000000000"/>
      <sparseX i="209" alpha="343.56534256217753" sparseCutoff="1.0000000000000000"/>
      <sparseX i="210" alpha="27.741900809940777" sparseCutoff="1.0000000000000000"/>
      <sparseX i="211" alpha="-3.2042271559625277" sparseCutoff="1.0000000000000000"/>
      <sparseX i="212" alpha="92.773104443267556" sparseCutoff="1.0000000000000000"/>
      <sparseX i="213" alpha="-6.0723104694008061" sparseCutoff="1.0000000000000000"/>
      <sparseX i="214" alpha="32.465717151030418" sparseCutoff="1.0000000000000000"/>
      <sparseX i="215" alpha="-6.2306441489441049" sparseCutoff="1.0000000000000000"/>
      <sparseX i="216" alpha="-31.899355158599505" sparseCutoff="1.0000000000000000"/>
      <sparseX i="217" alpha="-86.046170426561048" sparseCutoff="1.0000000000000000"/>
      <sparseX i="218" alpha="76.256069422115488" sparseCutoff="1.0000000000000000"/>
      <sparseX i="219" alpha="-42.804837484017206" sparseCutoff="1.0000000000000000"/>
      <sparseX i="220" alpha="-72.122526114673974" sparseCutoff="1.0000000000000000"/>
      <sparseX i="221" alpha="-7.8785474578737142" sparseCutoff="1.0000000000000000"/>
      <sparseX i="222" alpha="22.130137773569412" sparseCutoff="1.0000000000000000"/>
      <sparseX i="223" alpha="-87.016139330465847" sparseCutoff="1.0000000000000000"/>
      <sparseX i="224" alpha="-30.437838700160018" sparseCutoff="1.0000000000000000"/>
      <sparseX i="225" alpha="49.035969235475328" sparseCutoff="1.0000000000000000"/>
      <sparseX i="226" alpha="-9.3535851317372192" sparseCutoff="1.0000000000000000"/>
      <sparseX i="227" alpha="-11.596217171798161" sparseCutoff="1.0000000000000000"/>
      <sparseX i="228" alpha="-5.7197549937636509" sparseCutoff="1.0000000000000000"/>
      <sparseX i="229" alpha="76.692475432813993" sparseCutoff="1.0000000000000000"/>
      <sparseX i="230" alpha="-4.1823538918877228" sparseCutoff="1.0000000000000000"/>
      <sparseX i="231" alpha="-9.4139907406751924" sparseCutoff="1.0000000000000000"/>
      <sparseX i="232" alpha="1.3942084183423684" sparseCutoff="1.0000000000000000"/>
      <sparseX i="233" alpha="154.56032179565594" sparseCutoff="1.0000000000000000"/>
      <sparseX i="234" alpha="-179.50242565389334" sparseCutoff="1.0000000000000000"/>
      <sparseX i="235" alpha="25.825130915673160" sparseCutoff="1.0000000000000000"/>
      <sparseX i="236" alpha="113.59459049613936" sparseCutoff="1.0000000000000000"/>
      <sparseX i="237" alpha="-.11809495979217063" sparseCutoff="1.0000000000000000"/>
      <sparseX i="238" alpha="-31.724627042047356" sparseCutoff="1.0000000000000000"/>
      <sparseX i="239" alpha="-27.394583065056267" sparseCutoff="1.0000000000000000"/>
      <sparseX i="240" alpha="46.852371491296161" sparseCutoff="1.0000000000000000"/>
      <sparseX i="241" alpha=".26596397559227603" sparseCutoff="1.0000000000000000"/>
      <sparseX i="242" alpha="39.650500288980162" sparseCutoff="1.0000000000000000"/>
      <sparseX i="243" alpha="-6.9311854168228111" sparseCutoff="1.0000000000000000"/>
      <sparseX i="244" alpha="-40.372585805024599" sparseCutoff="1.0000000000000000"/>
      <sparseX i="245" alpha="-28.524502184627021" sparseCutoff="1.0000000000000000"/>
      <sparseX i="246" alpha="-21.600940676055682" sparseCutoff="1.0000000000000000"/>
      <sparseX i="247" alpha="72.924567397301246" sparseCutoff="1.0000000000000000"/>
      <sparseX i="248" alpha="-26.066182151867089" sparseCutoff="1.0000000000000000"/>
      <sparseX i="249" alpha="-110.96789998288783" sparseCutoff="1.0000000000000000"/>
      <sparseX i="250" alpha="156.57265578233671" sparseCutoff="1.0000000000000000"/>
      <sparseX i="251" alpha="88.478886833468309" sparseCutoff="1.0000000000000000"/>
      <sparseX i="252" alpha="7.6639797784466506" sparseCutoff="1.0000000000000000"/>
      <sparseX i="253" alpha="-28.018808339898673" sparseCutoff="1.0000000000000000"/>
      <sparseX i="254" alpha="66.810863653279682" sparseCutoff="1.0000000000000000"/>
      <sparseX i="255" alpha="68.898596015239207" sparseCutoff="1.0000000000000000"/>
      <sparseX i="256" alpha="4.9930405571819119" sparseCutoff="1.0000000000000000"/>
      <sparseX i="257" alpha="-82.342799797349187" sparseCutoff="1.0000000000000000"/>
      <sparseX i="258" alpha="21.590314748423793" sparseCutoff="1.0000000000000000"/>
      <sparseX i="259" alpha="-83.367758058867636" sparseCutoff="1.0000000000000000"/>
      <sparseX i="260" alpha="68.591118582327226" sparseCutoff="1.0000000000000000"/>
      <sparseX i="261" alpha="179.23350462056905" sparseCutoff="1.0000000000000000"/>
      <sparseX i="262" alpha="14.053362480708916" sparseCutoff="1.0000000000000000"/>
      <sparseX i="263" alpha="60.130923355694918" sparseCutoff="1.0000000000000000"/>
      <sparseX i="264" alpha="-49.685813969577211" sparseCutoff="1.0000000000000000"/>
      <sparseX i="265" alpha="-21.917880695085348" sparseCutoff="1.0000000000000000"/>
      <sparseX i="266" alpha="-57.495395958841428" sparseCutoff="1.0000000000000000"/>
      <sparseX i="267" alpha="6.8462023616394898" sparseCutoff="1.0000000000000000"/>
      <sparseX i="268" alpha="83.915706718640379" sparseCutoff="1.0000000000000000"/>
      <sparseX i="269" alpha="-159.35438895117241" sparseCutoff="1.0000000000000000"/>
      <sparseX i="270" alpha="-197.58913126391971" sparseCutoff="1.0000000000000000"/>
      <sparseX i="271" alpha="-22.670232331074228" sparseCutoff="1.0000000000000000"/>
      <sparseX i="272" alpha="46.824878743474109" sparseCutoff="1.0000000000000000"/>
      <sparseX i="273" alpha="-115.41575821923449" sparseCutoff="1.0000000000000000"/>
      <sparseX i="274" alpha="87.680414857179883" sparseCutoff="1.0000000000000000"/>
      <sparseX i="275" alpha="-22.638715727913123" sparseCutoff="1.0000000000000000"/>
      <sparseX i="276" alpha="13.136092302456852" sparseCutoff="1.0000000000000000"/>
      <sparseX i="277" alpha="-177.55011419764966" sparseCutoff="1.0000000000000000"/>
      <sparseX i="278" alpha="-18.082692198286441" sparseCutoff="1.0000000000000000"/>
      <sparseX i="279" alpha="-20.699599867342652" sparseCutoff="1.0000000000000000"/>
      <sparseX i="280" alpha="-76.969603089169013" sparseCutoff="1.0000000000000000"/>
      <sparseX i="281" alpha="23.391828638025459" sparseCutoff="1.0000000000000000"/>
      <sparseX i="282" alpha="-21.689251074668263" sparseCutoff="1.0000000000000000"/>
      <sparseX i="283" alpha="-178.00979212709379" sparseCutoff="1.0000000000000000"/>
      <sparseX i="284" alpha="1.8645671659616758" sparseCutoff="1.0000000000000000"/>
      <sparseX i="285" alpha="-30.447244816822284" sparseCutoff="1.0000000000000000"/>
      <sparseX i="286" alpha="19.661165427572161" sparseCutoff="1.0000000000000000"/>
      <sparseX i="287" alpha="19.675389476257472" sparseCutoff="1.0000000000000000"/>
      <sparseX i="288" alpha="29.513285184640022" sparseCutoff="1.0000000000000000"/>
      <sparseX i="289" alpha="-24.639831643681731" sparseCutoff="1.0000000000000000"/>
      <sparseX i="290" alpha="-99.683382194803201" sparseCutoff="1.0000000000000000"/>
      <sparseX i="291" alpha="50.093844683295416" sparseCutoff="1.0000000000000000"/>
      <sparseX i="292" alpha="-36.258276679256817" sparseCutoff="1.0000000000000000"/>
      <sparseX i="293" alpha="-107.17004447744904" sparseCutoff="1.0000000000000000"/>
      <sparseX i="294" alpha="174.88221318490690" sparseCutoff="1.0000000000000000"/>
      <sparseX i="295" alpha="-15.204881032866549" sparseCutoff="1.0000000000000000"/>
      <sparseX i="296" alpha="-21.708277945647701" sparseCutoff="1.0000000000000000"/>
      <sparseX i="297" alpha="-38.135689773822548" sparseCutoff="1.0000000000000000"/>
      <sparseX i="298" alpha="3.2711309084125388" sparseCutoff="1.0000000000000000"/>
      <sparseX i="299" alpha="-104.87756956330099" sparseCutoff="1.0000000000000000"/>
      <sparseX i="300" alpha="-21.056652898670510" sparseCutoff="1.0000000000000000"/>
      <sparseX i="301" alpha="-41.430573712014819" sparseCutoff="1.0000000000000000"/>
      <sparseX i="302" alpha="-18.843396400686441" sparseCutoff="1.0000000000000000"/>
      <sparseX i="303" alpha="-6.3970739936949732" sparseCutoff="1.0000000000000000"/>
      <sparseX i="304" alpha="-277.23867615426491" sparseCutoff="1.0000000000000000"/>
      <sparseX i="305" alpha="107.90870912104768" sparseCutoff="1.0000000000000000"/>
      <sparseX i="306" alpha="-136.42168560883570" sparseCutoff="1.0000000000000000"/>
      <sparseX i="307" alpha="4.9811427793160297" sparseCutoff="1.0000000000000000"/>
      <sparseX i="308" alpha="15.049162979220721" sparseCutoff="1.0000000000000000"/>
      <sparseX i="309" alpha="-27.094566088190987" sparseCutoff="1.0000000000000000"/>
      <sparseX i="310" alpha="48.730005089523338" sparseCutoff="1.0000000000000000"/>
      <sparseX i="311" alpha="148.81550092209656" sparseCutoff="1.0000000000000000"/>
      <sparseX i="312" alpha="301.46352117820635" sparseCutoff="1.0000000000000000"/>
      <sparseX i="313" alpha="82.631159427260798" sparseCutoff="1.0000000000000000"/>
      <sparseX i="314" alpha="-89.414412976517767" sparseCutoff="1.0000000000000000"/>
      <sparseX i="315" alpha="-21.450851290958056" sparseCutoff="1.0000000000000000"/>
      <sparseX i="316" alpha="28.747060567213918" sparseCutoff="1.0000000000000000"/>
      <sparseX i="317" alpha="-4.0430453190682982" sparseCutoff="1.0000000000000000"/>
      <sparseX i="318" alpha="-9.1764208454765335" sparseCutoff="1.0000000000000000"/>
      <sparseX i="319" alpha="-12.072070395120340" sparseCutoff="1.0000000000000000"/>
      <sparseX i="320" alpha="87.559748092691464" sparseCutoff="1.0000000000000000"/>
      <sparseX i="321" alpha="-179.49115967365751" sparseCutoff="1.0000000000000000"/>
      <sparseX i="322" alpha="11.366969154647924" sparseCutoff="1.0000000000000000"/>
      <sparseX i="323" alpha="117.50608725853255" sparseCutoff="1.0000000000000000"/>
      <sparseX i="324" alpha="-34.015123478698733" sparseCutoff="1.0000000000000000"/>
      <sparseX i="325" alpha="62.753953214671448" sparseCutoff="1.0000000000000000"/>
      <sparseX i="326" alpha="-177.24735054907947" sparseCutoff="1.0000000000000000"/>
      <sparseX i="327" alpha="-240.61634395765722" sparseCutoff="1.0000000000000000"/>
      <sparseX i="328" alpha="28.482265485557004" sparseCutoff="1.0000000000000000"/>
      <sparseX i="329" alpha="-14.174836321273267" sparseCutoff="1.0000000000000000"/>
      <sparseX i="330" alpha="-53.239364515127278" sparseCutoff="1.0000000000000000"/>
      <sparseX i="331" alpha="346.86190056915592" sparseCutoff="1.0000000000000000"/>
      <sparseX i="332" alpha="93.027895111724604" sparseCutoff="1.0000000000000000"/>
      <sparseX i="333" alpha="-89.153358364268740" sparseCutoff="1.0000000000000000"/>
      <sparseX i="334" alpha="10.238607972394588" sparseCutoff="1.0000000000000000"/>
      <sparseX i="335" alpha="82.178000763980464" sparseCutoff="1.0000000000000000"/>
      <sparseX i="336" alpha="-169.46479928708180" sparseCutoff="1.0000000000000000"/>
      <sparseX i="337" alpha="3.8931551856172031" sparseCutoff="1.0000000000000000"/>
      <sparseX i="338" alpha="-126.17768238545965" sparseCutoff="1.0000000000000000"/>
      <sparseX i="339" alpha="71.105748014540424" sparseCutoff="1.0000000000000000"/>
      <sparseX i="340" alpha="-215.97808296526307" sparseCutoff="1.0000000000000000"/>
      <sparseX i="341" alpha="-28.313553285935097" sparseCutoff="1.0000000000000000"/>
      <sparseX i="342" alpha="68.136566306852473" sparseCutoff="1.0000000000000000"/>
      <sparseX i="343" alpha="-46.828424969808864" sparseCutoff="1.0000000000000000"/>
      <sparseX i="344" alpha="-24.750485823714126" sparseCutoff="1.0000000000000000"/>
      <sparseX i="345" alpha="161.49030641238977" sparseCutoff="1.0000000000000000"/>
      <sparseX i="346" alpha="-30.348269353417848" sparseCutoff="1.0000000000000000"/>
      <sparseX i="347" alpha="-17.200992615229200" sparseCutoff="1.0000000000000000"/>
      <sparseX i="348" alpha="-14.607771957632972" sparseCutoff="1.0000000000000000"/>
      <sparseX i="349" alpha="-14.770033027999302" sparseCutoff="1.0000000000000000"/>
      <sparseX i="350" alpha="-37.014487581839219" sparseCutoff="1.0000000000000000"/>
      <sparseX i="351" alpha="35.286224190714577" sparseCutoff="1.0000000000000000"/>
      <sparseX i="352" alpha="-8.4369500911251425" sparseCutoff="1.0000000000000000"/>
      <sparseX i="353" alpha="-64.648440483189674" sparseCutoff="1.0000000000000000"/>
      <sparseX i="354" alpha="191.31404959562045" sparseCutoff="1.0000000000000000"/>
      <sparseX i="355" alpha="65.254307605044545" sparseCutoff="1.0000000000000000"/>
      <sparseX i="356" alpha="-31.039192499145628" sparseCutoff="1.0000000000000000"/>
      <sparseX i="357" alpha="110.71381973428558" sparseCutoff="1.0000000000000000"/>
      <sparseX i="358" alpha="-18.133319250100278" sparseCutoff="1.0000000000000000"/>
      <sparseX i="359" alpha="68.332177789024840" sparseCutoff="1.0000000000000000"/>
      <sparseX i="360" alpha="50.042129210598475" sparseCutoff="1.0000000000000000"/>
      <sparseX i="361" alpha="-62.374636492842960" sparseCutoff="1.0000000000000000"/>
      <sparseX i="362" alpha="205.65729820183230" sparseCutoff="1.0000000000000000"/>
      <sparseX i="363" alpha="43.315987846506296" sparseCutoff="1.0000000000000000"/>
      <sparseX i="364" alpha="-16.070619792847463" sparseCutoff="1.0000000000000000"/>
      <sparseX i="365" alpha="-36.862450993367929" sparseCutoff="1.0000000000000000"/>
      <sparseX i="366" alpha="-56.676298429062228" sparseCutoff="1.0000000000000000"/>
      <sparseX i="367" alpha="-3.7326808857798910" sparseCutoff="1.0000000000000000"/>
      <sparseX i="368" alpha="18.370094147348340" sparseCutoff="1.0000000000000000"/>
      <sparseX i="369" alpha="-61.739796337427862" sparseCutoff="1.0000000000000000"/>
      <sparseX i="370" alpha="-35.235645357177106" sparseCutoff="1.0000000000000000"/>
      <sparseX i="371" alpha="-20.174573480469427" sparseCutoff="1.0000000000000000"/>
      <sparseX i="372" alpha="-71.907035326273729" sparseCutoff="1.0000000000000000"/>
      <sparseX i="373" alpha="14.119648646150550" sparseCutoff="1.0000000000000000"/>
      <sparseX i="374" alpha="-3.8949448983145043" sparseCutoff="1.0000000000000000"/>
      <sparseX i="375" alpha="-80.289688815996811" sparseCutoff="1.0000000000000000"/>
      <sparseX i="376" alpha="30.085231267722246" sparseCutoff="1.0000000000000000"/>
      <sparseX i="377" alpha="-146.41235809176487" sparseCutoff="1.0000000000000000"/>
      <sparseX i="378" alpha="48.625980752047802" sparseCutoff="1.0000000000000000"/>
      <sparseX i="379" alpha="57.689404991518280" sparseCutoff="1.0000000000000000"/>
      <sparseX i="380" alpha="61.857551578734395" sparseCutoff="1.0000000000000000"/>
      <sparseX i="381" alpha="-59.036564623338002" sparseCutoff="1.0000000000000000"/>
      <sparseX i="382" alpha="-31.728944955987622" sparseCutoff="1.0000000000000000"/>
      <sparseX i="383" alpha="-23.116294374360844" sparseCutoff="1.0000000000000000"/>
      <sparseX i="384" alpha="-26.057723775653084" sparseCutoff="1.0000000000000000"/>
      <sparseX i="385" alpha="49.310171359531061" sparseCutoff="1.0000000000000000"/>
      <sparseX i="386" alpha="-92.911627563256516" sparseCutoff="1.0000000000000000"/>
      <sparseX i="387" alpha="25.810197373039991" sparseCutoff="1.0000000000000000"/>
      <sparseX i="388" alpha="-31.835080377306404" sparseCutoff="1.0000000000000000"/>
      <sparseX i="389" alpha="11.634546733568754" sparseCutoff="1.0000000000000000"/>
      <sparseX i="390" alpha="-27.679568131040725" sparseCutoff="1.0000000000000000"/>
      <sparseX i="391" alpha="2.7014903340253800" sparseCutoff="1.0000000000000000"/>
      <sparseX i="392" alpha="-127.92991890469573" sparseCutoff="1.0000000000000000"/>
      <sparseX i="393" alpha="64.366738700566216" sparseCutoff="1.0000000000000000"/>
      <sparseX i="394" alpha="-15.256676269980796" sparseCutoff="1.0000000000000000"/>
      <sparseX i="395" alpha="-11.708768622881154" sparseCutoff="1.0000000000000000"/>
      <sparseX i="396" alpha="-6.0785825092730459" sparseCutoff="1.0000000000000000"/>
      <sparseX i="397" alpha="21.897520006433197" sparseCutoff="1.0000000000000000"/>
      <sparseX i="398" alpha="-.52303915908054566" sparseCutoff="1.0000000000000000"/>
      <sparseX i="399" alpha="-150.89545517199284" sparseCutoff="1.0000000000000000"/>
      <sparseX i="400" alpha="60.807268321308975" sparseCutoff="1.0000000000000000"/>
      <sparseX i="401" alpha="89.185576350783435" sparseCutoff="1.0000000000000000"/>
      <sparseX i="402" alpha="-39.534213969660499" sparseCutoff="1.0000000000000000"/>
      <sparseX i="403" alpha="-17.084035064907631" sparseCutoff="1.0000000000000000"/>
      <sparseX i="404" alpha="-85.752223280328636" sparseCutoff="1.0000000000000000"/>
      <sparseX i="405" alpha="-108.48940616677632" sparseCutoff="1.0000000000000000"/>
      <sparseX i="406" alpha="142.96730356197955" sparseCutoff="1.0000000000000000"/>
      <sparseX i="407" alpha="277.84733994672530" sparseCutoff="1.0000000000000000"/>
      <sparseX i="408" alpha="-41.900934309044587" sparseCutoff="1.0000000000000000"/>
      <sparseX i="409" alpha="-12.742634302152583" sparseCutoff="1.0000000000000000"/>
      <sparseX i="410" alpha="53.594888333011781" sparseCutoff="1.0000000000000000"/>
      <sparseX i="411" alpha="-14.890408568346087" sparseCutoff="1.0000000000000000"/>
      <sparseX i="412" alpha="-23.859697760789842" sparseCutoff="1.0000000000000000"/>
      <sparseX i="413" alpha="-50.954922624323309" sparseCutoff="1.0000000000000000"/>
      <sparseX i="414" alpha="-144.61888241516303" sparseCutoff="1.0000000000000000"/>
      <sparseX i="415" alpha="6.4339343382565684" sparseCutoff="1.0000000000000000"/>
      <sparseX i="416" alpha="-110.25550125473872" sparseCutoff="1.0000000000000000"/>
      <sparseX i="417" alpha="1.7163018866275517" sparseCutoff="1.0000000000000000"/>
      <sparseX i="418" alpha="25.792274653873175" sparseCutoff="1.0000000000000000"/>
      <sparseX i="419" alpha="71.840969236026766" sparseCutoff="1.0000000000000000"/>
      <sparseX i="420" alpha="33.760754211954080" sparseCutoff="1.0000000000000000"/>
      <sparseX i="421" alpha="-79.329660792457503" sparseCutoff="1.0000000000000000"/>
      <sparseX i="422" alpha="-16.727587168649261" sparseCutoff="1.0000000000000000"/>
      <sparseX i="423" alpha="-41.049714700626502" sparseCutoff="1.0000000000000000"/>
      <sparseX i="424" alpha="-107.55756630151524" sparseCutoff="1.0000000000000000"/>
      <sparseX i="425" alpha="-14.052031967464432" sparseCutoff="1.0000000000000000"/>
      <sparseX i="426" alpha="-6.8850305514609378" sparseCutoff="1.0000000000000000"/>
      <sparseX i="427" alpha="-40.177330181589191" sparseCutoff="1.0000000000000000"/>
      <sparseX i="428" alpha="218.69921605581476" sparseCutoff="1.0000000000000000"/>
      <sparseX i="429" alpha="34.786827497010670" sparseCutoff="1.0000000000000000"/>
      <sparseX i="430" alpha="46.388080558695385" sparseCutoff="1.0000000000000000"/>
      <sparseX i="431" alpha="-47.852960087469967" sparseCutoff="1.0000000000000000"/>
      <sparseX i="432" alpha="182.76324683775121" sparseCutoff="1.0000000000000000"/>
      <sparseX i="433" alpha="172.98722723338946" sparseCutoff="1.0000000000000000"/>
      <sparseX i="434" alpha="-43.828373614849070" sparseCutoff="1.0000000000000000"/>
      <sparseX i="435" alpha="46.802003776973017" sparseCutoff="1.0000000000000000"/>
      <sparseX i="436" alpha="78.828425447327348" sparseCutoff="1.0000000000000000"/>
      <sparseX i="437" alpha="40.733547221908815" sparseCutoff="1.0000000000000000"/>
      <sparseX i="438" alpha="-120.84768740967813" sparseCutoff="1.0000000000000000"/>
      <sparseX i="439" alpha="-117.28812528480435" sparseCutoff="1.0000000000000000"/>
      <sparseX i="440" alpha="-101.08601700879544" sparseCutoff="1.0000000000000000"/>
      <sparseX i="441" alpha="60.865734215523503" sparseCutoff="1.0000000000000000"/>
      <sparseX i="442" alpha="-47.071391586666913" sparseCutoff="1.0000000000000000"/>
      <sparseX i="443" alpha="-30.325150490645360" sparseCutoff="1.0000000000000000"/>
      <sparseX i="444" alpha="139.95270163499046" sparseCutoff="1.0000000000000000"/>
      <sparseX i="445" alpha="-120.12996727712003" sparseCutoff="1.0000000000000000"/>
      <sparseX i="446" alpha="-7.7292309163159683" sparseCutoff="1.0000000000000000"/>
      <sparseX i="447" alpha="-167.88978839138267" sparseCutoff="1.0000000000000000"/>
      <sparseX i="448" alpha="-36.131685050956605" sparseCutoff="1.0000000000000000"/>
      <sparseX i="449" alpha="15.247548962831209" sparseCutoff="1.0000000000000000"/>
      <sparseX i="450" alpha="-88.649652459545138" sparseCutoff="1.0000000000000000"/>
      <sparseX i="451" alpha="-117.93959452631512" sparseCutoff="1.0000000000000000"/>
      <sparseX i="452" alpha="-162.49255114191166" sparseCutoff="1.0000000000000000"/>
      <sparseX i="453" alpha="-17.022557359622908" sparseCutoff="1.0000000000000000"/>
      <sparseX i="454" alpha="59.687579031433060" sparseCutoff="1.0000000000000000"/>
      <sparseX i="455" alpha="-50.690477124128144" sparseCutoff="1.0000000000000000"/>
      <sparseX i="456" alpha="35.756702623193881" sparseCutoff="1.0000000000000000"/>
      <sparseX i="457" alpha="-103.71261043876363" sparseCutoff="1.0000000000000000"/>
      <sparseX i="458" alpha="312.23106982843495" sparseCutoff="1.0000000000000000"/>
      <sparseX i="459" alpha="-25.780191055777323" sparseCutoff="1.0000000000000000"/>
      <sparseX i="460" alpha="12.635042191646317" sparseCutoff="1.0000000000000000"/>
      <sparseX i="461" alpha="120.65087241694577" sparseCutoff="1.0000000000000000"/>
      <sparseX i="462" alpha="-16.677595041816328" sparseCutoff="1.0000000000000000"/>
      <sparseX i="463" alpha="40.397985989052835" sparseCutoff="1.0000000000000000"/>
      <sparseX i="464" alpha="17.966665698789466" sparseCutoff="1.0000000000000000"/>
      <sparseX i="465" alpha="20.706094160927449" sparseCutoff="1.0000000000000000"/>
      <sparseX i="466" alpha="48.671982716598059" sparseCutoff="1.0000000000000000"/>
      <sparseX i="467" alpha="-111.24044153479889" sparseCutoff="1.0000000000000000"/>
      <sparseX i="468" alpha="73.299098459657515" sparseCutoff="1.0000000000000000"/>
      <sparseX i="469" alpha="40.246052729604216" sparseCutoff="1.0000000000000000"/>
      <sparseX i="470" alpha="13.503374522485670" sparseCutoff="1.0000000000000000"/>
      <sparseX i="471" alpha="124.68595868878059" sparseCutoff="1.0000000000000000"/>
      <sparseX i="472" alpha="-19.336805247256748" sparseCutoff="1.0000000000000000"/>
      <sparseX i="473" alpha="93.883717806045937" sparseCutoff="1.0000000000000000"/>
      <sparseX i="474" alpha="-235.07011264930250" sparseCutoff="1.0000000000000000"/>
      <sparseX i="475" alpha="135.96713656916020" sparseCutoff="1.0000000000000000"/>
      <sparseX i="476" alpha="16.254833674935778" sparseCutoff="1.0000000000000000"/>
      <sparseX i="477" alpha="50.245525138916669" sparseCutoff="1.0000000000000000"/>
      <sparseX i="478" alpha="76.587537974791189" sparseCutoff="1.0000000000000000"/>
      <sparseX i="479" alpha="49.382408422273009" sparseCutoff="1.0000000000000000"/>
      <sparseX i="480" alpha="-186.09512596366540" sparseCutoff="1.0000000000000000"/>
      <sparseX i="481" alpha=".45618556202460830" sparseCutoff="1.0000000000000000"/>
      <sparseX i="482" alpha="-.15599063292937587" sparseCutoff="1.0000000000000000"/>
      <sparseX i="483" alpha="100.26910722259106" sparseCutoff="1.0000000000000000"/>
      <sparseX i="484" alpha="-189.81956671935782" sparseCutoff="1.0000000000000000"/>
      <sparseX i="485" alpha="-4.5522356247149265" sparseCutoff="1.0000000000000000"/>
      <sparseX i="486" alpha="-163.35638665539278" sparseCutoff="1.0000000000000000"/>
      <sparseX i="487" alpha="-33.273487076144271" sparseCutoff="1.0000000000000000"/>
      <sparseX i="488" alpha="-52.799778678523808" sparseCutoff="1.0000000000000000"/>
      <sparseX i="489" alpha="-34.449568865842423" sparseCutoff="1.0000000000000000"/>
      <sparseX i="490" alpha="44.557446466531744" sparseCutoff="1.0000000000000000"/>
      <sparseX i="491" alpha="-63.090682374765926" sparseCutoff="1.0000000000000000"/>
      <sparseX i="492" alpha="30.362596998540457" sparseCutoff="1.0000000000000000"/>
      <sparseX i="493" alpha="144.37371266666483" sparseCutoff="1.0000000000000000"/>
      <sparseX i="494" alpha="8.6455640111984682" sparseCutoff="1.0000000000000000"/>
      <sparseX i="495" alpha="2.5377971449231547" sparseCutoff="1.0000000000000000"/>
      <sparseX i="496" alpha="28.441984617234908" sparseCutoff="1.0000000000000000"/>
      <sparseX i="497" alpha="-48.957369417036254" sparseCutoff="1.0000000000000000"/>
      <sparseX i="498" alpha="-58.787759424722871" sparseCutoff="1.0000000000000000"/>
      <sparseX i="499" alpha="-56.726796672154478" sparseCutoff="1.0000000000000000"/>
      <sparseX i="500" alpha="-3.1121454912943336" sparseCutoff="1.0000000000000000"/>
    </gpCoordinates>
  </gpSparse>
  <command_line><![CDATA[ at_file=train_waterbulk.xyz dipole_parameter_name=mu gap={soap cutoff=3.0 n_max=7 l_max=7 delta=1 covariance_type=dot_product atom_sigma=0.5 n_sparse=500 zeta=2} default_sigma={1 1 1 1} e0=0]]></command_line>
  <XYZ_data>
    <![CDATA[96]]>
    <![CDATA[Lattice="9.93999 0.0 0.0 0.0 9.93999 0.0 0.0 0.0 9.93999" Properties=species:S:1:pos:R:3 mu="-3.2487751 -6.6587725 -7.1559362" pol="43.2125366323 -0.130052720833 -0.256348155092 -0.122962952922 44.4168746758 0.0884482837605 -0.263885194045 0.0971518250796 44.4064567176" pbc="T T T"]]>
    <![CDATA[O        5.14503000       9.20366000      -1.73928000]]>
    <![CDATA[H        5.60928000      10.09880000      -1.74991000]]>
    <![CDATA[H        5.59298000       8.35658000      -1.52438000]]>
    <![CDATA[O        3.36336000      12.28190000       1.83792000]]>
    <![CDATA[H        3.48078000      11.38310000       1.16200000]]>
    <![CDATA[H        3.22362000      12.89080000       1.17117000]]>
    <![CDATA[O       -1.26837000       2.58151000       1.89964000]]>
    <![CDATA[H       -2.16069000       2.47311000       1.77533000]]>
    <![CDATA[H       -0.96575400       1.65230000       1.97111000]]>
    <![CDATA[O        1.68573000       2.75888000       5.06099000]]>
    <![CDATA[H        2.04475000       3.75041000       4.68962000]]>
    <![CDATA[H        1.96551000       2.03620000       4.54997000]]>
    <![CDATA[O       -3.18539000      -0.27078200      14.88830000]]>
    <![CDATA[H       -3.85009000       0.26438000      15.30980000]]>
    <![CDATA[H       -3.58397000      -1.13453000      14.47420000]]>
    <![CDATA[O       -0.88538500      -1.65964000      15.15580000]]>
    <![CDATA[H       -1.77150000      -1.26775000      15.16250000]]>
    <![CDATA[H       -0.77446100      -2.29775000      14.51110000]]>
    <![CDATA[O        2.45803000       5.04191000       3.45880000]]>
    <![CDATA[H        2.00205000       4.93418000       2.66025000]]>
    <![CDATA[H        3.40145000       4.68237000       3.42720000]]>
    <![CDATA[O        2.75580000      -2.96607000      -4.34609000]]>
    <![CDATA[H        2.58271000      -3.78448000      -4.89355000]]>
    <![CDATA[H        2.28236000      -3.01969000      -3.43099000]]>
    <![CDATA[O        9.95344000      -5.00153000      -1.33757000]]>
    <![CDATA[H        9.34139000      -4.40400000      -1.82857000]]>
    <![CDATA[H       10.23650000      -6.09380000      -1.75328000]]>
    <![CDATA[O        8.18539000      -3.58612000       6.97830000]]>
    <![CDATA[H        7.67448000      -4.16280000       6.46719000]]>
    <![CDATA[H        8.58215000      -2.79660000       6.45287000]]>
    <![CDATA[O        3.43852000       6.40210000      -0.05918000]]>
    <![CDATA[H        2.88453000       6.68320000      -0.81349200]]>
    <![CDATA[H        4.22511000       6.73001000      -0.32951000]]>
    <![CDATA[O        1.66431000      -2.92200000       7.95308000]]>
    <![CDATA[H        1.30111000      -3.74080000       7.92100000]]>
    <![CDATA[H        0.99499100      -2.38355000       8.48515000]]>
    <![CDATA[O        0.46608700       4.55599000       1.41296000]]>
    <![CDATA[H        0.40963400       4.81662000       0.57768700]]>
    <![CDATA[H       -0.18128100       3.93045000       1.53416000]]>
    <![CDATA[O        5.34603000       7.34668000       3.84704000]]>
    <![CDATA[H        4.81720000       7.80135000       3.23062000]]>
    <![CDATA[H        4.48116000       7.26186000       4.28863000]]>
    <![CDATA[O       -6.11065000       0.36396400       6.07453000]]>
    <![CDATA[H       -5.88159000      -0.12980700       7.07228000]]>
    <![CDATA[H       -6.62617000      -0.25940300       5.56928000]]>
    <![CDATA[O       -3.84899000      11.84280000       2.68139000]]>
    <![CDATA[H       -4.81027000      12.21310000       2.34614000]]>
    <![CDATA[H       -3.83034000      11.14710000       3.39172000]]>
    <![CDATA[O       -0.95890300       2.63461000       4.56781000]]>
    <![CDATA[H       -0.16614300       2.98573000       4.69051000]]>
    <![CDATA[H       -0.91306000       2.46833000       3.66466000]]>
    <![CDATA[O       -4.76089000       4.80951000      13.01780000]]>
    <![CDATA[H       -4.21242000       4.31445000      13.42810000]]>
    <![CDATA[H       -4.66849000       5.65366000      13.52500000]]>
    <![CDATA[O        6.93669000       4.25708000      -4.53258000]]>
    <![CDATA[H        6.37613000       3.73011000      -3.86819000]]>
    <![CDATA[H        7.53559000       3.64959000      -4.72629000]]>
    <![CDATA[O        2.89113000       3.86709000      -0.26929100]]>
    <![CDATA[H        3.15107000       4.86776000      -0.14181900]]>
    <![CDATA[H        2.18201000       3.86272000       0.07385700]]>
    <![CDATA[O        9.50349000      -0.16721300       1.55886000]]>
    <![CDATA[H        9.10892000      -0.91154200       1.53142000]]>
    <![CDATA[H       10.16610000      -0.43217400       2.33477000]]>
    <![CDATA[O        5.97533000      16.62450000       8.85217000]]>
    <![CDATA[H        5.99143000      15.75420000       9.13712000]]>
    <![CDATA[H        6.67117000      16.71700000       8.27786000]]>
    <![CDATA[O        6.47197000      11.70160000       8.51570000]]>
    <![CDATA[H        6.82257000      12.41890000       9.01370000]]>
    <![CDATA[H        7.21676000      11.31850000       8.04055000]]>
    <![CDATA[O        3.38062000       8.24768000      12.12350000]]>
    <![CDATA[H        3.25248000       7.36550000      11.80990000]]>
    <![CDATA[H        3.19191000       8.86030000      11.42130000]]>
    <![CDATA[O        3.43185000       0.23146000       0.12940900]]>
    <![CDATA[H        4.15025000      -0.28465500      -0.26156800]]>
    <![CDATA[H        2.56490000      -0.05345600      -0.31252400]]>
    <![CDATA[O       -0.84940000       0.93714400       7.43681000]]>
    <![CDATA[H       -1.13397000       0.78213500       6.62117000]]>
    <![CDATA[H       -0.05161300       1.47371000       7.24610000]]>
    <![CDATA[O        0.60520500       9.29065000       9.19280000]]>
    <![CDATA[H        0.12348700       9.37371000      10.19740000]]>
    <![CDATA[H        0.01863100       9.59853000       8.53303000]]>
    <![CDATA[O       14.49680000      13.05770000       6.80628000]]>
